<?xml version="1.0" encoding="UTF-8" standalone="yes"?>
<PMML xmlns="http://www.dmg.org/PMML-4_4" xmlns:data="http://jpmml.org/jpmml-model/InlineTable" version="4.4">
	<Header>
		<Application name="SkLearn2PMML package" version="0.116.4"/>
		<Timestamp>2025-04-26T12:35:10Z</Timestamp>
	</Header>
	<DataDictionary>
		<DataField name="resiko_diabetes" optype="categorical" dataType="double">
			<Value value="0.0"/>
			<Value value="1.0"/>
			<Value value="2.0"/>
		</DataField>
		<DataField name="gula_darah_12_bulan" optype="continuous" dataType="double"/>
		<DataField name="BMI" optype="continuous" dataType="double"/>
		<DataField name="Perokok" optype="continuous" dataType="double"/>
		<DataField name="Aktivitas_Fisik" optype="continuous" dataType="double"/>
		<DataField name="Buah_Harian" optype="continuous" dataType="double"/>
		<DataField name="Sayur_harian" optype="continuous" dataType="double"/>
		<DataField name="Alkohol_Berat" optype="continuous" dataType="double"/>
		<DataField name="hari_minum_manis" optype="continuous" dataType="double"/>
		<DataField name="hari_makan_manis" optype="continuous" dataType="double"/>
		<DataField name="akses_kesehatan" optype="continuous" dataType="double"/>
		<DataField name="masalah_mental" optype="continuous" dataType="double"/>
		<DataField name="riwayat_genetik" optype="continuous" dataType="double"/>
		<DataField name="jenis_kelamin" optype="continuous" dataType="double"/>
		<DataField name="Usia" optype="continuous" dataType="double"/>
		<DataField name="Pendidikan" optype="continuous" dataType="double"/>
		<DataField name="Pendapatan" optype="continuous" dataType="double"/>
	</DataDictionary>
	<MiningModel functionName="classification" algorithmName="sklearn.ensemble._forest.RandomForestClassifier">
		<MiningSchema>
			<MiningField name="resiko_diabetes" usageType="target"/>
			<MiningField name="BMI"/>
			<MiningField name="Aktivitas_Fisik"/>
			<MiningField name="hari_makan_manis"/>
			<MiningField name="masalah_mental"/>
			<MiningField name="riwayat_genetik"/>
			<MiningField name="Perokok"/>
			<MiningField name="Usia"/>
			<MiningField name="Alkohol_Berat"/>
			<MiningField name="Pendidikan"/>
			<MiningField name="Pendapatan"/>
			<MiningField name="hari_minum_manis"/>
			<MiningField name="Sayur_harian"/>
			<MiningField name="jenis_kelamin"/>
			<MiningField name="gula_darah_12_bulan"/>
			<MiningField name="akses_kesehatan"/>
			<MiningField name="Buah_Harian"/>
		</MiningSchema>
		<Output>
			<OutputField name="probability(0.0)" optype="continuous" dataType="double" feature="probability" value="0.0"/>
			<OutputField name="probability(1.0)" optype="continuous" dataType="double" feature="probability" value="1.0"/>
			<OutputField name="probability(2.0)" optype="continuous" dataType="double" feature="probability" value="2.0"/>
		</Output>
		<LocalTransformations>
			<DerivedField name="standardScaler(gula_darah_12_bulan)" optype="continuous" dataType="double">
				<Apply function="/">
					<Apply function="-">
						<FieldRef field="gula_darah_12_bulan"/>
						<Constant dataType="double">0.4010693079064725</Constant>
					</Apply>
					<Constant dataType="double">0.4901150050364665</Constant>
				</Apply>
			</DerivedField>
			<DerivedField name="standardScaler(BMI)" optype="continuous" dataType="double">
				<Apply function="/">
					<Apply function="-">
						<FieldRef field="BMI"/>
						<Constant dataType="double">28.386892354694854</Constant>
					</Apply>
					<Constant dataType="double">6.607336283780497</Constant>
				</Apply>
			</DerivedField>
			<DerivedField name="standardScaler(Perokok)" optype="continuous" dataType="double">
				<Apply function="/">
					<Apply function="-">
						<FieldRef field="Perokok"/>
						<Constant dataType="double">0.4441471407100796</Constant>
					</Apply>
					<Constant dataType="double">0.4968706653739384</Constant>
				</Apply>
			</DerivedField>
			<DerivedField name="standardScaler(Aktivitas_Fisik)" optype="continuous" dataType="double">
				<Apply function="/">
					<Apply function="-">
						<FieldRef field="Aktivitas_Fisik"/>
						<Constant dataType="double">0.756665927513736</Constant>
					</Apply>
					<Constant dataType="double">0.4290950962822969</Constant>
				</Apply>
			</DerivedField>
			<DerivedField name="standardScaler(Buah_Harian)" optype="continuous" dataType="double">
				<Apply function="/">
					<Apply function="-">
						<FieldRef field="Buah_Harian"/>
						<Constant dataType="double">0.6000443491758445</Constant>
					</Apply>
					<Constant dataType="double">0.48988889372793676</Constant>
				</Apply>
			</DerivedField>
			<DerivedField name="standardScaler(Sayur_harian)" optype="continuous" dataType="double">
				<Apply function="/">
					<Apply function="-">
						<FieldRef field="Sayur_harian"/>
						<Constant dataType="double">0.5024121023973194</Constant>
					</Apply>
					<Constant dataType="double">0.4999941817281725</Constant>
				</Apply>
			</DerivedField>
			<DerivedField name="standardScaler(Alkohol_Berat)" optype="continuous" dataType="double">
				<Apply function="/">
					<Apply function="-">
						<FieldRef field="Alkohol_Berat"/>
						<Constant dataType="double">0.05576169709512898</Constant>
					</Apply>
					<Constant dataType="double">0.2294609557903045</Constant>
				</Apply>
			</DerivedField>
			<DerivedField name="standardScaler(hari_minum_manis)" optype="continuous" dataType="double">
				<Apply function="/">
					<Apply function="-">
						<FieldRef field="hari_minum_manis"/>
						<Constant dataType="double">3.4991499741296472</Constant>
					</Apply>
					<Constant dataType="double">2.293672560141222</Constant>
				</Apply>
			</DerivedField>
			<DerivedField name="standardScaler(hari_makan_manis)" optype="continuous" dataType="double">
				<Apply function="/">
					<Apply function="-">
						<FieldRef field="hari_makan_manis"/>
						<Constant dataType="double">3.4947052011727893</Constant>
					</Apply>
					<Constant dataType="double">2.2933378793399446</Constant>
				</Apply>
			</DerivedField>
			<DerivedField name="standardScaler(akses_kesehatan)" optype="continuous" dataType="double">
				<Apply function="/">
					<Apply function="-">
						<FieldRef field="akses_kesehatan"/>
						<Constant dataType="double">0.7997339049449331</Constant>
					</Apply>
					<Constant dataType="double">0.4001994330661424</Constant>
				</Apply>
			</DerivedField>
			<DerivedField name="standardScaler(masalah_mental)" optype="continuous" dataType="double">
				<Apply function="/">
					<Apply function="-">
						<FieldRef field="masalah_mental"/>
						<Constant dataType="double">15.000137975213738</Constant>
					</Apply>
					<Constant dataType="double">8.957470216479507</Constant>
				</Apply>
			</DerivedField>
			<DerivedField name="standardScaler(riwayat_genetik)" optype="continuous" dataType="double">
				<Apply function="/">
					<Apply function="-">
						<FieldRef field="riwayat_genetik"/>
						<Constant dataType="double">0.3010372779461404</Constant>
					</Apply>
					<Constant dataType="double">0.45870887851982833</Constant>
				</Apply>
			</DerivedField>
			<DerivedField name="standardScaler(jenis_kelamin)" optype="continuous" dataType="double">
				<Apply function="/">
					<Apply function="-">
						<FieldRef field="jenis_kelamin"/>
						<Constant dataType="double">0.4985537240988494</Constant>
					</Apply>
					<Constant dataType="double">0.4999979082816425</Constant>
				</Apply>
			</DerivedField>
			<DerivedField name="standardScaler(Usia)" optype="continuous" dataType="double">
				<Apply function="/">
					<Apply function="-">
						<FieldRef field="Usia"/>
						<Constant dataType="double">7.001024958730628</Constant>
					</Apply>
					<Constant dataType="double">3.7345783697250905</Constant>
				</Apply>
			</DerivedField>
			<DerivedField name="standardScaler(Pendidikan)" optype="continuous" dataType="double">
				<Apply function="/">
					<Apply function="-">
						<FieldRef field="Pendidikan"/>
						<Constant dataType="double">3.5005395816394413</Constant>
					</Apply>
					<Constant dataType="double">1.7079952700433643</Constant>
				</Apply>
			</DerivedField>
			<DerivedField name="standardScaler(Pendapatan)" optype="continuous" dataType="double">
				<Apply function="/">
					<Apply function="-">
						<FieldRef field="Pendapatan"/>
						<Constant dataType="double">4.507384137778106</Constant>
					</Apply>
					<Constant dataType="double">2.2891490643647705</Constant>
				</Apply>
			</DerivedField>
			<DerivedField name="float(standardScaler(gula_darah_12_bulan))" optype="continuous" dataType="float">
				<FieldRef field="standardScaler(gula_darah_12_bulan)"/>
			</DerivedField>
			<DerivedField name="float(standardScaler(BMI))" optype="continuous" dataType="float">
				<FieldRef field="standardScaler(BMI)"/>
			</DerivedField>
			<DerivedField name="float(standardScaler(Perokok))" optype="continuous" dataType="float">
				<FieldRef field="standardScaler(Perokok)"/>
			</DerivedField>
			<DerivedField name="float(standardScaler(Aktivitas_Fisik))" optype="continuous" dataType="float">
				<FieldRef field="standardScaler(Aktivitas_Fisik)"/>
			</DerivedField>
			<DerivedField name="float(standardScaler(Buah_Harian))" optype="continuous" dataType="float">
				<FieldRef field="standardScaler(Buah_Harian)"/>
			</DerivedField>
			<DerivedField name="float(standardScaler(Sayur_harian))" optype="continuous" dataType="float">
				<FieldRef field="standardScaler(Sayur_harian)"/>
			</DerivedField>
			<DerivedField name="float(standardScaler(Alkohol_Berat))" optype="continuous" dataType="float">
				<FieldRef field="standardScaler(Alkohol_Berat)"/>
			</DerivedField>
			<DerivedField name="float(standardScaler(hari_minum_manis))" optype="continuous" dataType="float">
				<FieldRef field="standardScaler(hari_minum_manis)"/>
			</DerivedField>
			<DerivedField name="float(standardScaler(hari_makan_manis))" optype="continuous" dataType="float">
				<FieldRef field="standardScaler(hari_makan_manis)"/>
			</DerivedField>
			<DerivedField name="float(standardScaler(akses_kesehatan))" optype="continuous" dataType="float">
				<FieldRef field="standardScaler(akses_kesehatan)"/>
			</DerivedField>
			<DerivedField name="float(standardScaler(masalah_mental))" optype="continuous" dataType="float">
				<FieldRef field="standardScaler(masalah_mental)"/>
			</DerivedField>
			<DerivedField name="float(standardScaler(riwayat_genetik))" optype="continuous" dataType="float">
				<FieldRef field="standardScaler(riwayat_genetik)"/>
			</DerivedField>
			<DerivedField name="float(standardScaler(jenis_kelamin))" optype="continuous" dataType="float">
				<FieldRef field="standardScaler(jenis_kelamin)"/>
			</DerivedField>
			<DerivedField name="float(standardScaler(Usia))" optype="continuous" dataType="float">
				<FieldRef field="standardScaler(Usia)"/>
			</DerivedField>
			<DerivedField name="float(standardScaler(Pendidikan))" optype="continuous" dataType="float">
				<FieldRef field="standardScaler(Pendidikan)"/>
			</DerivedField>
			<DerivedField name="float(standardScaler(Pendapatan))" optype="continuous" dataType="float">
				<FieldRef field="standardScaler(Pendapatan)"/>
			</DerivedField>
			<DerivedField name="double(float(standardScaler(BMI)))" optype="continuous" dataType="double">
				<FieldRef field="float(standardScaler(BMI))"/>
			</DerivedField>
			<DerivedField name="double(float(standardScaler(Aktivitas_Fisik)))" optype="continuous" dataType="double">
				<FieldRef field="float(standardScaler(Aktivitas_Fisik))"/>
			</DerivedField>
			<DerivedField name="double(float(standardScaler(hari_makan_manis)))" optype="continuous" dataType="double">
				<FieldRef field="float(standardScaler(hari_makan_manis))"/>
			</DerivedField>
			<DerivedField name="double(float(standardScaler(masalah_mental)))" optype="continuous" dataType="double">
				<FieldRef field="float(standardScaler(masalah_mental))"/>
			</DerivedField>
			<DerivedField name="double(float(standardScaler(riwayat_genetik)))" optype="continuous" dataType="double">
				<FieldRef field="float(standardScaler(riwayat_genetik))"/>
			</DerivedField>
			<DerivedField name="double(float(standardScaler(Perokok)))" optype="continuous" dataType="double">
				<FieldRef field="float(standardScaler(Perokok))"/>
			</DerivedField>
			<DerivedField name="double(float(standardScaler(Usia)))" optype="continuous" dataType="double">
				<FieldRef field="float(standardScaler(Usia))"/>
			</DerivedField>
			<DerivedField name="double(float(standardScaler(Alkohol_Berat)))" optype="continuous" dataType="double">
				<FieldRef field="float(standardScaler(Alkohol_Berat))"/>
			</DerivedField>
			<DerivedField name="double(float(standardScaler(Pendidikan)))" optype="continuous" dataType="double">
				<FieldRef field="float(standardScaler(Pendidikan))"/>
			</DerivedField>
			<DerivedField name="double(float(standardScaler(Pendapatan)))" optype="continuous" dataType="double">
				<FieldRef field="float(standardScaler(Pendapatan))"/>
			</DerivedField>
			<DerivedField name="double(float(standardScaler(hari_minum_manis)))" optype="continuous" dataType="double">
				<FieldRef field="float(standardScaler(hari_minum_manis))"/>
			</DerivedField>
			<DerivedField name="double(float(standardScaler(Sayur_harian)))" optype="continuous" dataType="double">
				<FieldRef field="float(standardScaler(Sayur_harian))"/>
			</DerivedField>
			<DerivedField name="double(float(standardScaler(jenis_kelamin)))" optype="continuous" dataType="double">
				<FieldRef field="float(standardScaler(jenis_kelamin))"/>
			</DerivedField>
			<DerivedField name="double(float(standardScaler(gula_darah_12_bulan)))" optype="continuous" dataType="double">
				<FieldRef field="float(standardScaler(gula_darah_12_bulan))"/>
			</DerivedField>
			<DerivedField name="double(float(standardScaler(akses_kesehatan)))" optype="continuous" dataType="double">
				<FieldRef field="float(standardScaler(akses_kesehatan))"/>
			</DerivedField>
			<DerivedField name="double(float(standardScaler(Buah_Harian)))" optype="continuous" dataType="double">
				<FieldRef field="float(standardScaler(Buah_Harian))"/>
			</DerivedField>
		</LocalTransformations>
		<Segmentation multipleModelMethod="average" missingPredictionTreatment="returnMissing">
			<Segment id="1">
				<True/>
				<TreeModel functionName="classification" missingValueStrategy="nullPrediction">
					<MiningSchema>
						<MiningField name="double(float(standardScaler(BMI)))"/>
						<MiningField name="double(float(standardScaler(Aktivitas_Fisik)))"/>
						<MiningField name="double(float(standardScaler(hari_makan_manis)))"/>
						<MiningField name="double(float(standardScaler(masalah_mental)))"/>
						<MiningField name="double(float(standardScaler(riwayat_genetik)))"/>
						<MiningField name="double(float(standardScaler(Perokok)))"/>
						<MiningField name="double(float(standardScaler(Usia)))"/>
						<MiningField name="double(float(standardScaler(Alkohol_Berat)))"/>
						<MiningField name="double(float(standardScaler(Pendidikan)))"/>
					</MiningSchema>
					<Node>
						<True/>
						<Node>
							<SimplePredicate field="double(float(standardScaler(BMI)))" operator="lessOrEqual" value="-0.13422842510044575"/>
							<Node>
								<SimplePredicate field="double(float(standardScaler(BMI)))" operator="lessOrEqual" value="-0.7396160960197449"/>
								<Node>
									<SimplePredicate field="double(float(standardScaler(Aktivitas_Fisik)))" operator="lessOrEqual" value="-0.5981562733650208"/>
									<Node>
										<SimplePredicate field="double(float(standardScaler(hari_makan_manis)))" operator="lessOrEqual" value="0.4383544251322746"/>
										<Node score="0.0" recordCount="1">
											<SimplePredicate field="double(float(standardScaler(masalah_mental)))" operator="lessOrEqual" value="0.3907199203968048"/>
											<ScoreDistribution value="0.0" recordCount="0.8979861340376362"/>
											<ScoreDistribution value="1.0" recordCount="0.012545394519643446"/>
											<ScoreDistribution value="2.0" recordCount="0.08946847144272037"/>
										</Node>
										<Node score="0.0" recordCount="1">
											<True/>
											<ScoreDistribution value="0.0" recordCount="0.9362150764364786"/>
											<ScoreDistribution value="1.0" recordCount="0.004217185028993147"/>
											<ScoreDistribution value="2.0" recordCount="0.0595677385345282"/>
										</Node>
									</Node>
									<Node score="0.0" recordCount="1">
										<SimplePredicate field="double(float(standardScaler(riwayat_genetik)))" operator="lessOrEqual" value="0.4337450861930847"/>
										<ScoreDistribution value="0.0" recordCount="0.9017369727047146"/>
										<ScoreDistribution value="1.0" recordCount="0.023325062034739455"/>
										<ScoreDistribution value="2.0" recordCount="0.0749379652605459"/>
									</Node>
									<Node score="0.0" recordCount="1">
										<True/>
										<ScoreDistribution value="0.0" recordCount="0.8687430478309233"/>
										<ScoreDistribution value="1.0" recordCount="0.013348164627363738"/>
										<ScoreDistribution value="2.0" recordCount="0.11790878754171301"/>
									</Node>
								</Node>
								<Node>
									<SimplePredicate field="double(float(standardScaler(Perokok)))" operator="lessOrEqual" value="0.11240923404693604"/>
									<Node score="0.0" recordCount="1">
										<SimplePredicate field="double(float(standardScaler(Usia)))" operator="lessOrEqual" value="0.4013773053884506"/>
										<ScoreDistribution value="0.0" recordCount="0.9619265331861895"/>
										<ScoreDistribution value="1.0" recordCount="0.006306164275579379"/>
										<ScoreDistribution value="2.0" recordCount="0.031767302538231124"/>
									</Node>
									<Node score="0.0" recordCount="1">
										<True/>
										<ScoreDistribution value="0.0" recordCount="0.9519980506822612"/>
										<ScoreDistribution value="1.0" recordCount="0.01145224171539961"/>
										<ScoreDistribution value="2.0" recordCount="0.03654970760233918"/>
									</Node>
								</Node>
								<Node score="0.0" recordCount="1">
									<SimplePredicate field="double(float(standardScaler(BMI)))" operator="lessOrEqual" value="-1.04230996966362"/>
									<ScoreDistribution value="0.0" recordCount="0.9519864750633982"/>
									<ScoreDistribution value="1.0" recordCount="0.008622147083685545"/>
									<ScoreDistribution value="2.0" recordCount="0.03939137785291631"/>
								</Node>
								<Node score="0.0" recordCount="1">
									<True/>
									<ScoreDistribution value="0.0" recordCount="0.9261083743842364"/>
									<ScoreDistribution value="1.0" recordCount="0.009441707717569787"/>
									<ScoreDistribution value="2.0" recordCount="0.06444991789819376"/>
								</Node>
							</Node>
							<Node>
								<SimplePredicate field="double(float(standardScaler(Aktivitas_Fisik)))" operator="lessOrEqual" value="-0.5981562733650208"/>
								<Node>
									<SimplePredicate field="double(float(standardScaler(Alkohol_Berat)))" operator="lessOrEqual" value="1.9360083416104317"/>
									<Node score="0.0" recordCount="1">
										<SimplePredicate field="double(float(standardScaler(Pendidikan)))" operator="lessOrEqual" value="1.1706475019454956"/>
										<ScoreDistribution value="0.0" recordCount="0.8308338332333534"/>
										<ScoreDistribution value="1.0" recordCount="0.015596880623875225"/>
										<ScoreDistribution value="2.0" recordCount="0.15356928614277143"/>
									</Node>
									<Node score="0.0" recordCount="1">
										<True/>
										<ScoreDistribution value="0.0" recordCount="0.840523509452254"/>
										<ScoreDistribution value="1.0" recordCount="0.027629665535627727"/>
										<ScoreDistribution value="2.0" recordCount="0.13184682501211828"/>
									</Node>
								</Node>
								<Node score="0.0" recordCount="1">
									<SimplePredicate field="double(float(standardScaler(BMI)))" operator="lessOrEqual" value="-0.43692226707935333"/>
									<ScoreDistribution value="0.0" recordCount="0.9547872340425532"/>
									<ScoreDistribution value="1.0" recordCount="0.013297872340425532"/>
									<ScoreDistribution value="2.0" recordCount="0.031914893617021274"/>
								</Node>
								<Node score="0.0" recordCount="1">
									<True/>
									<ScoreDistribution value="0.0" recordCount="0.8730569948186528"/>
									<ScoreDistribution value="1.0" recordCount="0.025906735751295335"/>
									<ScoreDistribution value="2.0" recordCount="0.10103626943005181"/>
								</Node>
							</Node>
							<Node>
								<SimplePredicate field="double(float(standardScaler(Perokok)))" operator="lessOrEqual" value="0.11240923404693604"/>
								<Node score="0.0" recordCount="1">
									<SimplePredicate field="double(float(standardScaler(BMI)))" operator="lessOrEqual" value="-0.43692226707935333"/>
									<ScoreDistribution value="0.0" recordCount="0.9379734171787909"/>
									<ScoreDistribution value="1.0" recordCount="0.010361583535801057"/>
									<ScoreDistribution value="2.0" recordCount="0.051664999285408034"/>
								</Node>
								<Node score="0.0" recordCount="1">
									<True/>
									<ScoreDistribution value="0.0" recordCount="0.9062423650134376"/>
									<ScoreDistribution value="1.0" recordCount="0.01148301978988517"/>
									<ScoreDistribution value="2.0" recordCount="0.08227461519667725"/>
								</Node>
							</Node>
							<Node score="0.0" recordCount="1">
								<SimplePredicate field="double(float(standardScaler(Alkohol_Berat)))" operator="lessOrEqual" value="1.9360083416104317"/>
								<ScoreDistribution value="0.0" recordCount="0.8733688014454929"/>
								<ScoreDistribution value="1.0" recordCount="0.019574382654085527"/>
								<ScoreDistribution value="2.0" recordCount="0.1070568159004216"/>
							</Node>
							<Node score="0.0" recordCount="1">
								<True/>
								<ScoreDistribution value="0.0" recordCount="0.9451371571072319"/>
								<ScoreDistribution value="1.0" recordCount="0.010473815461346634"/>
								<ScoreDistribution value="2.0" recordCount="0.044389027431421445"/>
							</Node>
						</Node>
						<Node>
							<SimplePredicate field="double(float(standardScaler(BMI)))" operator="lessOrEqual" value="0.6225062012672424"/>
							<Node>
								<SimplePredicate field="double(float(standardScaler(Aktivitas_Fisik)))" operator="lessOrEqual" value="-0.5981562733650208"/>
								<Node>
									<SimplePredicate field="double(float(standardScaler(BMI)))" operator="lessOrEqual" value="0.47115926444530487"/>
									<Node score="0.0" recordCount="1">
										<SimplePredicate field="double(float(standardScaler(Perokok)))" operator="lessOrEqual" value="0.11240923404693604"/>
										<ScoreDistribution value="0.0" recordCount="0.7864164432529044"/>
										<ScoreDistribution value="1.0" recordCount="0.025915996425379804"/>
										<ScoreDistribution value="2.0" recordCount="0.1876675603217158"/>
									</Node>
									<Node score="0.0" recordCount="1">
										<True/>
										<ScoreDistribution value="0.0" recordCount="0.751084685842841"/>
										<ScoreDistribution value="1.0" recordCount="0.021050940061063797"/>
										<ScoreDistribution value="2.0" recordCount="0.22786437409609514"/>
									</Node>
								</Node>
								<Node score="0.0" recordCount="1">
									<SimplePredicate field="double(float(standardScaler(Perokok)))" operator="lessOrEqual" value="0.11240923404693604"/>
									<ScoreDistribution value="0.0" recordCount="0.752827140549273"/>
									<ScoreDistribution value="1.0" recordCount="0.027463651050080775"/>
									<ScoreDistribution value="2.0" recordCount="0.2197092084006462"/>
								</Node>
								<Node score="0.0" recordCount="1">
									<True/>
									<ScoreDistribution value="0.0" recordCount="0.6313253012048192"/>
									<ScoreDistribution value="1.0" recordCount="0.04176706827309237"/>
									<ScoreDistribution value="2.0" recordCount="0.3269076305220884"/>
								</Node>
							</Node>
							<Node>
								<SimplePredicate field="double(float(standardScaler(Perokok)))" operator="lessOrEqual" value="0.11240923404693604"/>
								<Node score="0.0" recordCount="1">
									<SimplePredicate field="double(float(standardScaler(Alkohol_Berat)))" operator="lessOrEqual" value="1.9360083416104317"/>
									<ScoreDistribution value="0.0" recordCount="0.8555521050530145"/>
									<ScoreDistribution value="1.0" recordCount="0.01623707910030611"/>
									<ScoreDistribution value="2.0" recordCount="0.12821081584667937"/>
								</Node>
								<Node score="0.0" recordCount="1">
									<True/>
									<ScoreDistribution value="0.0" recordCount="0.9419889502762431"/>
									<ScoreDistribution value="1.0" recordCount="0.009668508287292817"/>
									<ScoreDistribution value="2.0" recordCount="0.04834254143646409"/>
								</Node>
							</Node>
							<Node score="0.0" recordCount="1">
								<SimplePredicate field="double(float(standardScaler(Alkohol_Berat)))" operator="lessOrEqual" value="1.9360083416104317"/>
								<ScoreDistribution value="0.0" recordCount="0.8066528066528067"/>
								<ScoreDistribution value="1.0" recordCount="0.021034609269903387"/>
								<ScoreDistribution value="2.0" recordCount="0.17231258407728997"/>
							</Node>
							<Node score="0.0" recordCount="1">
								<True/>
								<ScoreDistribution value="0.0" recordCount="0.8849624060150376"/>
								<ScoreDistribution value="1.0" recordCount="0.022556390977443608"/>
								<ScoreDistribution value="2.0" recordCount="0.0924812030075188"/>
							</Node>
						</Node>
						<Node>
							<SimplePredicate field="double(float(standardScaler(Aktivitas_Fisik)))" operator="lessOrEqual" value="-0.5981562733650208"/>
							<Node>
								<SimplePredicate field="double(float(standardScaler(BMI)))" operator="lessOrEqual" value="2.4386693239212036"/>
								<Node score="0.0" recordCount="0.9999999999999999">
									<SimplePredicate field="double(float(standardScaler(Alkohol_Berat)))" operator="lessOrEqual" value="1.9360083416104317"/>
									<ScoreDistribution value="0.0" recordCount="0.6484584450402144"/>
									<ScoreDistribution value="1.0" recordCount="0.03133378016085791"/>
									<ScoreDistribution value="2.0" recordCount="0.3202077747989276"/>
								</Node>
								<Node score="0.0" recordCount="1">
									<True/>
									<ScoreDistribution value="0.0" recordCount="0.8087912087912088"/>
									<ScoreDistribution value="1.0" recordCount="0.046153846153846156"/>
									<ScoreDistribution value="2.0" recordCount="0.14505494505494507"/>
								</Node>
							</Node>
							<Node score="0.0" recordCount="1">
								<SimplePredicate field="double(float(standardScaler(BMI)))" operator="lessOrEqual" value="7.508791208267212"/>
								<ScoreDistribution value="0.0" recordCount="0.5012543903662819"/>
								<ScoreDistribution value="1.0" recordCount="0.04114400401404917"/>
								<ScoreDistribution value="2.0" recordCount="0.45760160561966884"/>
							</Node>
							<Node score="0.0" recordCount="1">
								<True/>
								<ScoreDistribution value="0.0" recordCount="0.8409090909090909"/>
								<ScoreDistribution value="1.0" recordCount="0"/>
								<ScoreDistribution value="2.0" recordCount="0.1590909090909091"/>
							</Node>
						</Node>
						<Node>
							<SimplePredicate field="double(float(standardScaler(Perokok)))" operator="lessOrEqual" value="0.11240923404693604"/>
							<Node score="0.0" recordCount="1">
								<SimplePredicate field="double(float(standardScaler(BMI)))" operator="lessOrEqual" value="1.3792407512664795"/>
								<ScoreDistribution value="0.0" recordCount="0.7846683893195521"/>
								<ScoreDistribution value="1.0" recordCount="0.02422480620155039"/>
								<ScoreDistribution value="2.0" recordCount="0.1911068044788975"/>
							</Node>
							<Node score="0.0" recordCount="1">
								<True/>
								<ScoreDistribution value="0.0" recordCount="0.7129308772569761"/>
								<ScoreDistribution value="1.0" recordCount="0.023527266095203357"/>
								<ScoreDistribution value="2.0" recordCount="0.26354185664782054"/>
							</Node>
						</Node>
						<Node score="0.0" recordCount="1">
							<SimplePredicate field="double(float(standardScaler(Alkohol_Berat)))" operator="lessOrEqual" value="1.9360083416104317"/>
							<ScoreDistribution value="0.0" recordCount="0.6862690189489405"/>
							<ScoreDistribution value="1.0" recordCount="0.028563427611313356"/>
							<ScoreDistribution value="2.0" recordCount="0.2851675534397461"/>
						</Node>
						<Node score="0.0" recordCount="1">
							<True/>
							<ScoreDistribution value="0.0" recordCount="0.8184615384615385"/>
							<ScoreDistribution value="1.0" recordCount="0.021538461538461538"/>
							<ScoreDistribution value="2.0" recordCount="0.16"/>
						</Node>
					</Node>
				</TreeModel>
			</Segment>
			<Segment id="2">
				<True/>
				<TreeModel functionName="classification" missingValueStrategy="nullPrediction">
					<MiningSchema>
						<MiningField name="double(float(standardScaler(BMI)))"/>
						<MiningField name="double(float(standardScaler(Aktivitas_Fisik)))"/>
						<MiningField name="double(float(standardScaler(masalah_mental)))"/>
						<MiningField name="double(float(standardScaler(Perokok)))"/>
						<MiningField name="double(float(standardScaler(Usia)))"/>
						<MiningField name="double(float(standardScaler(Alkohol_Berat)))"/>
						<MiningField name="double(float(standardScaler(Pendapatan)))"/>
					</MiningSchema>
					<Node>
						<True/>
						<Node>
							<SimplePredicate field="double(float(standardScaler(BMI)))" operator="lessOrEqual" value="0.01711849309504032"/>
							<Node>
								<SimplePredicate field="double(float(standardScaler(BMI)))" operator="lessOrEqual" value="-0.43692226707935333"/>
								<Node>
									<SimplePredicate field="double(float(standardScaler(Aktivitas_Fisik)))" operator="lessOrEqual" value="-0.5981562733650208"/>
									<Node>
										<SimplePredicate field="double(float(standardScaler(BMI)))" operator="lessOrEqual" value="-0.7396160960197449"/>
										<Node score="0.0" recordCount="1">
											<SimplePredicate field="double(float(standardScaler(Alkohol_Berat)))" operator="lessOrEqual" value="1.9360083416104317"/>
											<ScoreDistribution value="0.0" recordCount="0.8952577319587629"/>
											<ScoreDistribution value="1.0" recordCount="0.012646048109965636"/>
											<ScoreDistribution value="2.0" recordCount="0.09209621993127148"/>
										</Node>
										<Node score="0.0" recordCount="1">
											<True/>
											<ScoreDistribution value="0.0" recordCount="0.9437386569872959"/>
											<ScoreDistribution value="1.0" recordCount="0.016333938294010888"/>
											<ScoreDistribution value="2.0" recordCount="0.039927404718693285"/>
										</Node>
									</Node>
									<Node score="0.0" recordCount="0.9999999999999999">
										<SimplePredicate field="double(float(standardScaler(Alkohol_Berat)))" operator="lessOrEqual" value="1.9360083416104317"/>
										<ScoreDistribution value="0.0" recordCount="0.8472896440129449"/>
										<ScoreDistribution value="1.0" recordCount="0.022249190938511326"/>
										<ScoreDistribution value="2.0" recordCount="0.1304611650485437"/>
									</Node>
									<Node score="0.0" recordCount="1">
										<True/>
										<ScoreDistribution value="0.0" recordCount="0.9355742296918768"/>
										<ScoreDistribution value="1.0" recordCount="0.028011204481792718"/>
										<ScoreDistribution value="2.0" recordCount="0.036414565826330535"/>
									</Node>
								</Node>
								<Node>
									<SimplePredicate field="double(float(standardScaler(BMI)))" operator="lessOrEqual" value="-0.7396160960197449"/>
									<Node score="0.0" recordCount="1">
										<SimplePredicate field="double(float(standardScaler(Perokok)))" operator="lessOrEqual" value="0.11240923404693604"/>
										<ScoreDistribution value="0.0" recordCount="0.9565217391304348"/>
										<ScoreDistribution value="1.0" recordCount="0.008523271403945605"/>
										<ScoreDistribution value="2.0" recordCount="0.03495498946561961"/>
									</Node>
									<Node score="0.0" recordCount="1">
										<True/>
										<ScoreDistribution value="0.0" recordCount="0.9389324487334137"/>
										<ScoreDistribution value="1.0" recordCount="0.009725572979493365"/>
										<ScoreDistribution value="2.0" recordCount="0.05134197828709288"/>
									</Node>
								</Node>
								<Node score="0.0" recordCount="1">
									<SimplePredicate field="double(float(standardScaler(Perokok)))" operator="lessOrEqual" value="0.11240923404693604"/>
									<ScoreDistribution value="0.0" recordCount="0.9344837462408707"/>
									<ScoreDistribution value="1.0" recordCount="0.010167549763711871"/>
									<ScoreDistribution value="2.0" recordCount="0.05534870399541744"/>
								</Node>
								<Node score="0.0" recordCount="1">
									<True/>
									<ScoreDistribution value="0.0" recordCount="0.9010733090319968"/>
									<ScoreDistribution value="1.0" recordCount="0.013973268529769137"/>
									<ScoreDistribution value="2.0" recordCount="0.0849534224382341"/>
								</Node>
							</Node>
							<Node>
								<SimplePredicate field="double(float(standardScaler(Aktivitas_Fisik)))" operator="lessOrEqual" value="-0.5981562733650208"/>
								<Node>
									<SimplePredicate field="double(float(standardScaler(Usia)))" operator="lessOrEqual" value="-1.4729976058006287"/>
									<Node score="0.0" recordCount="1">
										<SimplePredicate field="double(float(standardScaler(masalah_mental)))" operator="lessOrEqual" value="-0.8373053669929504"/>
										<ScoreDistribution value="0.0" recordCount="0.9234449760765551"/>
										<ScoreDistribution value="1.0" recordCount="0.028708133971291867"/>
										<ScoreDistribution value="2.0" recordCount="0.04784688995215311"/>
									</Node>
									<Node score="0.0" recordCount="1">
										<True/>
										<ScoreDistribution value="0.0" recordCount="0.8657187993680885"/>
										<ScoreDistribution value="1.0" recordCount="0.00315955766192733"/>
										<ScoreDistribution value="2.0" recordCount="0.13112164296998421"/>
									</Node>
								</Node>
								<Node score="0.0" recordCount="1">
									<SimplePredicate field="double(float(standardScaler(BMI)))" operator="lessOrEqual" value="-0.13422842510044575"/>
									<ScoreDistribution value="0.0" recordCount="0.8255282695602513"/>
									<ScoreDistribution value="1.0" recordCount="0.01784694460308395"/>
									<ScoreDistribution value="2.0" recordCount="0.15662478583666475"/>
								</Node>
								<Node score="0.0" recordCount="0.9999999999999999">
									<True/>
									<ScoreDistribution value="0.0" recordCount="0.7811713977721882"/>
									<ScoreDistribution value="1.0" recordCount="0.02551203736974488"/>
									<ScoreDistribution value="2.0" recordCount="0.19331656485806684"/>
								</Node>
							</Node>
							<Node>
								<SimplePredicate field="double(float(standardScaler(Alkohol_Berat)))" operator="lessOrEqual" value="1.9360083416104317"/>
								<Node score="0.0" recordCount="1">
									<SimplePredicate field="double(float(standardScaler(Perokok)))" operator="lessOrEqual" value="0.11240923404693604"/>
									<ScoreDistribution value="0.0" recordCount="0.8959083469721768"/>
									<ScoreDistribution value="1.0" recordCount="0.014122048164601357"/>
									<ScoreDistribution value="2.0" recordCount="0.08996960486322189"/>
								</Node>
								<Node score="0.0" recordCount="1">
									<True/>
									<ScoreDistribution value="0.0" recordCount="0.85634066448292"/>
									<ScoreDistribution value="1.0" recordCount="0.018316732401898524"/>
									<ScoreDistribution value="2.0" recordCount="0.1253426031151815"/>
								</Node>
							</Node>
							<Node score="0.0" recordCount="0.9999999999999999">
								<SimplePredicate field="double(float(standardScaler(Pendapatan)))" operator="lessOrEqual" value="-0.8769127726554871"/>
								<ScoreDistribution value="0.0" recordCount="0.9175824175824175"/>
								<ScoreDistribution value="1.0" recordCount="0.01282051282051282"/>
								<ScoreDistribution value="2.0" recordCount="0.0695970695970696"/>
							</Node>
							<Node score="0.0" recordCount="1">
								<True/>
								<ScoreDistribution value="0.0" recordCount="0.9555555555555556"/>
								<ScoreDistribution value="1.0" recordCount="0.013813813813813814"/>
								<ScoreDistribution value="2.0" recordCount="0.03063063063063063"/>
							</Node>
						</Node>
						<Node>
							<SimplePredicate field="double(float(standardScaler(BMI)))" operator="lessOrEqual" value="0.6225062012672424"/>
							<Node>
								<SimplePredicate field="double(float(standardScaler(Aktivitas_Fisik)))" operator="lessOrEqual" value="-0.5981562733650208"/>
								<Node>
									<SimplePredicate field="double(float(standardScaler(Perokok)))" operator="lessOrEqual" value="0.11240923404693604"/>
									<Node score="0.0" recordCount="1">
										<SimplePredicate field="double(float(standardScaler(BMI)))" operator="lessOrEqual" value="0.3198123350739479"/>
										<ScoreDistribution value="0.0" recordCount="0.778644909542391"/>
										<ScoreDistribution value="1.0" recordCount="0.028378857750975522"/>
										<ScoreDistribution value="2.0" recordCount="0.19297623270663355"/>
									</Node>
									<Node score="0.0" recordCount="1">
										<True/>
										<ScoreDistribution value="0.0" recordCount="0.7618078175895765"/>
										<ScoreDistribution value="1.0" recordCount="0.01710097719869707"/>
										<ScoreDistribution value="2.0" recordCount="0.22109120521172637"/>
									</Node>
								</Node>
								<Node score="0.0" recordCount="1">
									<SimplePredicate field="double(float(standardScaler(BMI)))" operator="lessOrEqual" value="0.47115926444530487"/>
									<ScoreDistribution value="0.0" recordCount="0.735340022296544"/>
									<ScoreDistribution value="1.0" recordCount="0.02697881828316611"/>
									<ScoreDistribution value="2.0" recordCount="0.23768115942028986"/>
								</Node>
								<Node score="0.0" recordCount="1">
									<True/>
									<ScoreDistribution value="0.0" recordCount="0.6518636003172086"/>
									<ScoreDistribution value="1.0" recordCount="0.034892942109436956"/>
									<ScoreDistribution value="2.0" recordCount="0.3132434575733545"/>
								</Node>
							</Node>
							<Node>
								<SimplePredicate field="double(float(standardScaler(Perokok)))" operator="lessOrEqual" value="0.11240923404693604"/>
								<Node score="0.0" recordCount="1">
									<SimplePredicate field="double(float(standardScaler(Alkohol_Berat)))" operator="lessOrEqual" value="1.9360083416104317"/>
									<ScoreDistribution value="0.0" recordCount="0.8503567181926278"/>
									<ScoreDistribution value="1.0" recordCount="0.01718192627824019"/>
									<ScoreDistribution value="2.0" recordCount="0.132461355529132"/>
								</Node>
								<Node score="0.0" recordCount="1">
									<True/>
									<ScoreDistribution value="0.0" recordCount="0.9487632508833922"/>
									<ScoreDistribution value="1.0" recordCount="0.0035335689045936395"/>
									<ScoreDistribution value="2.0" recordCount="0.04770318021201413"/>
								</Node>
							</Node>
							<Node score="0.0" recordCount="1">
								<SimplePredicate field="double(float(standardScaler(Alkohol_Berat)))" operator="lessOrEqual" value="1.9360083416104317"/>
								<ScoreDistribution value="0.0" recordCount="0.7955898921615967"/>
								<ScoreDistribution value="1.0" recordCount="0.02317720907774022"/>
								<ScoreDistribution value="2.0" recordCount="0.18123289876066312"/>
							</Node>
							<Node score="0.0" recordCount="1">
								<True/>
								<ScoreDistribution value="0.0" recordCount="0.905284147557328"/>
								<ScoreDistribution value="1.0" recordCount="0.0259222333000997"/>
								<ScoreDistribution value="2.0" recordCount="0.06879361914257229"/>
							</Node>
						</Node>
						<Node>
							<SimplePredicate field="double(float(standardScaler(Aktivitas_Fisik)))" operator="lessOrEqual" value="-0.5981562733650208"/>
							<Node>
								<SimplePredicate field="double(float(standardScaler(BMI)))" operator="lessOrEqual" value="2.135975480079651"/>
								<Node score="0.0" recordCount="1">
									<SimplePredicate field="double(float(standardScaler(Alkohol_Berat)))" operator="lessOrEqual" value="1.9360083416104317"/>
									<ScoreDistribution value="0.0" recordCount="0.6451844538192263"/>
									<ScoreDistribution value="1.0" recordCount="0.033210663315680816"/>
									<ScoreDistribution value="2.0" recordCount="0.3216048828650929"/>
								</Node>
								<Node score="0.0" recordCount="1">
									<True/>
									<ScoreDistribution value="0.0" recordCount="0.8280871670702179"/>
									<ScoreDistribution value="1.0" recordCount="0.03631961259079903"/>
									<ScoreDistribution value="2.0" recordCount="0.13559322033898305"/>
								</Node>
							</Node>
							<Node score="0.0" recordCount="1">
								<SimplePredicate field="double(float(standardScaler(BMI)))" operator="lessOrEqual" value="6.525036096572876"/>
								<ScoreDistribution value="0.0" recordCount="0.532565671104714"/>
								<ScoreDistribution value="1.0" recordCount="0.032385750269881254"/>
								<ScoreDistribution value="2.0" recordCount="0.4350485786254048"/>
							</Node>
							<Node score="0.0" recordCount="1">
								<True/>
								<ScoreDistribution value="0.0" recordCount="0.7346938775510204"/>
								<ScoreDistribution value="1.0" recordCount="0.02040816326530612"/>
								<ScoreDistribution value="2.0" recordCount="0.24489795918367346"/>
							</Node>
						</Node>
						<Node>
							<SimplePredicate field="double(float(standardScaler(BMI)))" operator="lessOrEqual" value="1.3792407512664795"/>
							<Node score="0.0" recordCount="1">
								<SimplePredicate field="double(float(standardScaler(Perokok)))" operator="lessOrEqual" value="0.11240923404693604"/>
								<ScoreDistribution value="0.0" recordCount="0.7824173465006441"/>
								<ScoreDistribution value="1.0" recordCount="0.022863890081580077"/>
								<ScoreDistribution value="2.0" recordCount="0.19471876341777586"/>
							</Node>
							<Node score="0.0" recordCount="1">
								<True/>
								<ScoreDistribution value="0.0" recordCount="0.7231984743222994"/>
								<ScoreDistribution value="1.0" recordCount="0.02819779321618308"/>
								<ScoreDistribution value="2.0" recordCount="0.2486037324615175"/>
							</Node>
						</Node>
						<Node score="0.0" recordCount="1">
							<SimplePredicate field="double(float(standardScaler(BMI)))" operator="lessOrEqual" value="6.3736891746521"/>
							<ScoreDistribution value="0.0" recordCount="0.6749599572877736"/>
							<ScoreDistribution value="1.0" recordCount="0.03150026695141484"/>
							<ScoreDistribution value="2.0" recordCount="0.2935397757608115"/>
						</Node>
						<Node score="0.0" recordCount="0.9999999999999999">
							<True/>
							<ScoreDistribution value="0.0" recordCount="0.8851351351351351"/>
							<ScoreDistribution value="1.0" recordCount="0.02702702702702703"/>
							<ScoreDistribution value="2.0" recordCount="0.08783783783783784"/>
						</Node>
					</Node>
				</TreeModel>
			</Segment>
			<Segment id="3">
				<True/>
				<TreeModel functionName="classification" missingValueStrategy="nullPrediction">
					<MiningSchema>
						<MiningField name="double(float(standardScaler(BMI)))"/>
						<MiningField name="double(float(standardScaler(Aktivitas_Fisik)))"/>
						<MiningField name="double(float(standardScaler(hari_makan_manis)))"/>
						<MiningField name="double(float(standardScaler(Perokok)))"/>
						<MiningField name="double(float(standardScaler(Alkohol_Berat)))"/>
						<MiningField name="double(float(standardScaler(Pendapatan)))"/>
					</MiningSchema>
					<Node>
						<True/>
						<Node>
							<SimplePredicate field="double(float(standardScaler(BMI)))" operator="lessOrEqual" value="0.01711849309504032"/>
							<Node>
								<SimplePredicate field="double(float(standardScaler(BMI)))" operator="lessOrEqual" value="-0.5882691740989685"/>
								<Node>
									<SimplePredicate field="double(float(standardScaler(Aktivitas_Fisik)))" operator="lessOrEqual" value="-0.5981562733650208"/>
									<Node>
										<SimplePredicate field="double(float(standardScaler(Alkohol_Berat)))" operator="lessOrEqual" value="1.9360083416104317"/>
										<Node score="0.0" recordCount="1">
											<SimplePredicate field="double(float(standardScaler(BMI)))" operator="lessOrEqual" value="-0.8909630179405212"/>
											<ScoreDistribution value="0.0" recordCount="0.9053162592161428"/>
											<ScoreDistribution value="1.0" recordCount="0.010283275126115638"/>
											<ScoreDistribution value="2.0" recordCount="0.08440046565774156"/>
										</Node>
										<Node score="0.0" recordCount="1">
											<True/>
											<ScoreDistribution value="0.0" recordCount="0.8723358449946179"/>
											<ScoreDistribution value="1.0" recordCount="0.014854682454251884"/>
											<ScoreDistribution value="2.0" recordCount="0.11280947255113025"/>
										</Node>
									</Node>
									<Node score="0.0" recordCount="1">
										<SimplePredicate field="double(float(standardScaler(hari_makan_manis)))" operator="lessOrEqual" value="0.4383544251322746"/>
										<ScoreDistribution value="0.0" recordCount="0.9744094488188977"/>
										<ScoreDistribution value="1.0" recordCount="0.00984251968503937"/>
										<ScoreDistribution value="2.0" recordCount="0.015748031496062992"/>
									</Node>
									<Node score="0.0" recordCount="1">
										<True/>
										<ScoreDistribution value="0.0" recordCount="0.9071428571428571"/>
										<ScoreDistribution value="1.0" recordCount="0.017857142857142856"/>
										<ScoreDistribution value="2.0" recordCount="0.075"/>
									</Node>
								</Node>
								<Node>
									<SimplePredicate field="double(float(standardScaler(Perokok)))" operator="lessOrEqual" value="0.11240923404693604"/>
									<Node score="0.0" recordCount="1">
										<SimplePredicate field="double(float(standardScaler(BMI)))" operator="lessOrEqual" value="-0.7396160960197449"/>
										<ScoreDistribution value="0.0" recordCount="0.9582931997688307"/>
										<ScoreDistribution value="1.0" recordCount="0.00823540743594683"/>
										<ScoreDistribution value="2.0" recordCount="0.0334713927952225"/>
									</Node>
									<Node score="0.0" recordCount="1">
										<True/>
										<ScoreDistribution value="0.0" recordCount="0.9384858044164038"/>
										<ScoreDistribution value="1.0" recordCount="0.008543638275499475"/>
										<ScoreDistribution value="2.0" recordCount="0.05297055730809674"/>
									</Node>
								</Node>
								<Node score="0.0" recordCount="1">
									<SimplePredicate field="double(float(standardScaler(BMI)))" operator="lessOrEqual" value="-0.8909630179405212"/>
									<ScoreDistribution value="0.0" recordCount="0.9438347320852163"/>
									<ScoreDistribution value="1.0" recordCount="0.009468474284484614"/>
									<ScoreDistribution value="2.0" recordCount="0.04669679363029912"/>
								</Node>
								<Node score="0.0" recordCount="1">
									<True/>
									<ScoreDistribution value="0.0" recordCount="0.9076629165782212"/>
									<ScoreDistribution value="1.0" recordCount="0.014858841010401188"/>
									<ScoreDistribution value="2.0" recordCount="0.07747824241137763"/>
								</Node>
							</Node>
							<Node>
								<SimplePredicate field="double(float(standardScaler(Aktivitas_Fisik)))" operator="lessOrEqual" value="-0.5981562733650208"/>
								<Node>
									<SimplePredicate field="double(float(standardScaler(Alkohol_Berat)))" operator="lessOrEqual" value="1.9360083416104317"/>
									<Node score="0.0" recordCount="1">
										<SimplePredicate field="double(float(standardScaler(BMI)))" operator="lessOrEqual" value="-0.13422842510044575"/>
										<ScoreDistribution value="0.0" recordCount="0.8289293609853668"/>
										<ScoreDistribution value="1.0" recordCount="0.01926518580903253"/>
										<ScoreDistribution value="2.0" recordCount="0.1518054532056006"/>
									</Node>
									<Node score="0.0" recordCount="1">
										<True/>
										<ScoreDistribution value="0.0" recordCount="0.7883310719131614"/>
										<ScoreDistribution value="1.0" recordCount="0.02408412483039349"/>
										<ScoreDistribution value="2.0" recordCount="0.18758480325644505"/>
									</Node>
								</Node>
								<Node score="0.0" recordCount="1">
									<SimplePredicate field="double(float(standardScaler(BMI)))" operator="lessOrEqual" value="-0.28557535260915756"/>
									<ScoreDistribution value="0.0" recordCount="0.9505813953488372"/>
									<ScoreDistribution value="1.0" recordCount="0.0029069767441860465"/>
									<ScoreDistribution value="2.0" recordCount="0.046511627906976744"/>
								</Node>
								<Node score="0.0" recordCount="1">
									<True/>
									<ScoreDistribution value="0.0" recordCount="0.8676844783715013"/>
									<ScoreDistribution value="1.0" recordCount="0.03307888040712468"/>
									<ScoreDistribution value="2.0" recordCount="0.09923664122137404"/>
								</Node>
							</Node>
							<Node>
								<SimplePredicate field="double(float(standardScaler(Perokok)))" operator="lessOrEqual" value="0.11240923404693604"/>
								<Node score="0.0" recordCount="1">
									<SimplePredicate field="double(float(standardScaler(BMI)))" operator="lessOrEqual" value="-0.28557535260915756"/>
									<ScoreDistribution value="0.0" recordCount="0.9223744292237442"/>
									<ScoreDistribution value="1.0" recordCount="0.012699771689497716"/>
									<ScoreDistribution value="2.0" recordCount="0.064925799086758"/>
								</Node>
								<Node score="0.0" recordCount="1">
									<True/>
									<ScoreDistribution value="0.0" recordCount="0.8915910964550701"/>
									<ScoreDistribution value="1.0" recordCount="0.014152239626270954"/>
									<ScoreDistribution value="2.0" recordCount="0.09425666391865897"/>
								</Node>
							</Node>
							<Node score="0.0" recordCount="1">
								<SimplePredicate field="double(float(standardScaler(Alkohol_Berat)))" operator="lessOrEqual" value="1.9360083416104317"/>
								<ScoreDistribution value="0.0" recordCount="0.8608581205580416"/>
								<ScoreDistribution value="1.0" recordCount="0.018689128718083706"/>
								<ScoreDistribution value="2.0" recordCount="0.12045275072387471"/>
							</Node>
							<Node score="0.0" recordCount="0.9999999999999999">
								<True/>
								<ScoreDistribution value="0.0" recordCount="0.942565754159957"/>
								<ScoreDistribution value="1.0" recordCount="0.01288244766505636"/>
								<ScoreDistribution value="2.0" recordCount="0.04455179817498658"/>
							</Node>
						</Node>
						<Node>
							<SimplePredicate field="double(float(standardScaler(BMI)))" operator="lessOrEqual" value="0.6225062012672424"/>
							<Node>
								<SimplePredicate field="double(float(standardScaler(Aktivitas_Fisik)))" operator="lessOrEqual" value="-0.5981562733650208"/>
								<Node>
									<SimplePredicate field="double(float(standardScaler(Perokok)))" operator="lessOrEqual" value="0.11240923404693604"/>
									<Node score="0.0" recordCount="1">
										<SimplePredicate field="double(float(standardScaler(Pendapatan)))" operator="lessOrEqual" value="-0.4400692507624626"/>
										<ScoreDistribution value="0.0" recordCount="0.8076726342710997"/>
										<ScoreDistribution value="1.0" recordCount="0.02659846547314578"/>
										<ScoreDistribution value="2.0" recordCount="0.16572890025575449"/>
									</Node>
									<Node score="0.0" recordCount="1">
										<True/>
										<ScoreDistribution value="0.0" recordCount="0.7596735187424426"/>
										<ScoreDistribution value="1.0" recordCount="0.02720677146311971"/>
										<ScoreDistribution value="2.0" recordCount="0.21311970979443773"/>
									</Node>
								</Node>
								<Node score="0.0" recordCount="0.9999999999999999">
									<SimplePredicate field="double(float(standardScaler(Alkohol_Berat)))" operator="lessOrEqual" value="1.9360083416104317"/>
									<ScoreDistribution value="0.0" recordCount="0.718825948775472"/>
									<ScoreDistribution value="1.0" recordCount="0.026360067302299495"/>
									<ScoreDistribution value="2.0" recordCount="0.2548139839222284"/>
								</Node>
								<Node score="0.0" recordCount="1">
									<True/>
									<ScoreDistribution value="0.0" recordCount="0.8174386920980926"/>
									<ScoreDistribution value="1.0" recordCount="0.05994550408719346"/>
									<ScoreDistribution value="2.0" recordCount="0.1226158038147139"/>
								</Node>
							</Node>
							<Node>
								<SimplePredicate field="double(float(standardScaler(Perokok)))" operator="lessOrEqual" value="0.11240923404693604"/>
								<Node score="0.0" recordCount="1">
									<SimplePredicate field="double(float(standardScaler(Alkohol_Berat)))" operator="lessOrEqual" value="1.9360083416104317"/>
									<ScoreDistribution value="0.0" recordCount="0.8443554560979919"/>
									<ScoreDistribution value="1.0" recordCount="0.01772569342205995"/>
									<ScoreDistribution value="2.0" recordCount="0.13791885047994817"/>
								</Node>
								<Node score="0.0" recordCount="1">
									<True/>
									<ScoreDistribution value="0.0" recordCount="0.9334470989761092"/>
									<ScoreDistribution value="1.0" recordCount="0.013651877133105802"/>
									<ScoreDistribution value="2.0" recordCount="0.052901023890784986"/>
								</Node>
							</Node>
							<Node score="0.0" recordCount="1">
								<SimplePredicate field="double(float(standardScaler(Alkohol_Berat)))" operator="lessOrEqual" value="1.9360083416104317"/>
								<ScoreDistribution value="0.0" recordCount="0.7875009989610805"/>
								<ScoreDistribution value="1.0" recordCount="0.026292655638136337"/>
								<ScoreDistribution value="2.0" recordCount="0.18620634540078318"/>
							</Node>
							<Node score="0.0" recordCount="1">
								<True/>
								<ScoreDistribution value="0.0" recordCount="0.8835546475995915"/>
								<ScoreDistribution value="1.0" recordCount="0.027579162410623085"/>
								<ScoreDistribution value="2.0" recordCount="0.0888661899897855"/>
							</Node>
						</Node>
						<Node>
							<SimplePredicate field="double(float(standardScaler(Aktivitas_Fisik)))" operator="lessOrEqual" value="-0.5981562733650208"/>
							<Node>
								<SimplePredicate field="double(float(standardScaler(BMI)))" operator="lessOrEqual" value="2.2873224020004272"/>
								<Node score="0.0" recordCount="1">
									<SimplePredicate field="double(float(standardScaler(Perokok)))" operator="lessOrEqual" value="0.11240923404693604"/>
									<ScoreDistribution value="0.0" recordCount="0.6868903951066292"/>
									<ScoreDistribution value="1.0" recordCount="0.029261034881798643"/>
									<ScoreDistribution value="2.0" recordCount="0.28384857001157215"/>
								</Node>
								<Node score="0.0" recordCount="1">
									<True/>
									<ScoreDistribution value="0.0" recordCount="0.6186688311688312"/>
									<ScoreDistribution value="1.0" recordCount="0.033766233766233764"/>
									<ScoreDistribution value="2.0" recordCount="0.3475649350649351"/>
								</Node>
							</Node>
							<Node score="0.0" recordCount="1">
								<SimplePredicate field="double(float(standardScaler(Perokok)))" operator="lessOrEqual" value="0.11240923404693604"/>
								<ScoreDistribution value="0.0" recordCount="0.5732946298984035"/>
								<ScoreDistribution value="1.0" recordCount="0.026850507982583455"/>
								<ScoreDistribution value="2.0" recordCount="0.39985486211901305"/>
							</Node>
							<Node score="0.0" recordCount="1">
								<True/>
								<ScoreDistribution value="0.0" recordCount="0.48138528138528136"/>
								<ScoreDistribution value="1.0" recordCount="0.0380952380952381"/>
								<ScoreDistribution value="2.0" recordCount="0.4805194805194805"/>
							</Node>
						</Node>
						<Node>
							<SimplePredicate field="double(float(standardScaler(BMI)))" operator="lessOrEqual" value="1.3792407512664795"/>
							<Node score="0.0" recordCount="1">
								<SimplePredicate field="double(float(standardScaler(Perokok)))" operator="lessOrEqual" value="0.11240923404693604"/>
								<ScoreDistribution value="0.0" recordCount="0.7753607581305191"/>
								<ScoreDistribution value="1.0" recordCount="0.022399310790437218"/>
								<ScoreDistribution value="2.0" recordCount="0.20223993107904373"/>
							</Node>
							<Node score="0.0" recordCount="1">
								<True/>
								<ScoreDistribution value="0.0" recordCount="0.7226749086822141"/>
								<ScoreDistribution value="1.0" recordCount="0.02851924697948862"/>
								<ScoreDistribution value="2.0" recordCount="0.24880584433829728"/>
							</Node>
						</Node>
						<Node score="0.0" recordCount="1">
							<SimplePredicate field="double(float(standardScaler(BMI)))" operator="lessOrEqual" value="6.070995330810547"/>
							<ScoreDistribution value="0.0" recordCount="0.6794535519125683"/>
							<ScoreDistribution value="1.0" recordCount="0.03344262295081967"/>
							<ScoreDistribution value="2.0" recordCount="0.28710382513661203"/>
						</Node>
						<Node score="0.0" recordCount="1">
							<True/>
							<ScoreDistribution value="0.0" recordCount="0.8974358974358975"/>
							<ScoreDistribution value="1.0" recordCount="0.016025641025641024"/>
							<ScoreDistribution value="2.0" recordCount="0.08653846153846154"/>
						</Node>
					</Node>
				</TreeModel>
			</Segment>
			<Segment id="4">
				<True/>
				<TreeModel functionName="classification" missingValueStrategy="nullPrediction">
					<MiningSchema>
						<MiningField name="double(float(standardScaler(BMI)))"/>
						<MiningField name="double(float(standardScaler(Aktivitas_Fisik)))"/>
						<MiningField name="double(float(standardScaler(hari_makan_manis)))"/>
						<MiningField name="double(float(standardScaler(masalah_mental)))"/>
						<MiningField name="double(float(standardScaler(Perokok)))"/>
						<MiningField name="double(float(standardScaler(Alkohol_Berat)))"/>
						<MiningField name="double(float(standardScaler(Pendapatan)))"/>
						<MiningField name="double(float(standardScaler(hari_minum_manis)))"/>
						<MiningField name="double(float(standardScaler(Sayur_harian)))"/>
					</MiningSchema>
					<Node>
						<True/>
						<Node>
							<SimplePredicate field="double(float(standardScaler(BMI)))" operator="lessOrEqual" value="0.01711849309504032"/>
							<Node>
								<SimplePredicate field="double(float(standardScaler(BMI)))" operator="lessOrEqual" value="-0.5882691740989685"/>
								<Node>
									<SimplePredicate field="double(float(standardScaler(Aktivitas_Fisik)))" operator="lessOrEqual" value="-0.5981562733650208"/>
									<Node>
										<SimplePredicate field="double(float(standardScaler(BMI)))" operator="lessOrEqual" value="-0.8909630179405212"/>
										<Node score="0.0" recordCount="1">
											<SimplePredicate field="double(float(standardScaler(hari_makan_manis)))" operator="lessOrEqual" value="0.4383544251322746"/>
											<ScoreDistribution value="0.0" recordCount="0.918130395951176"/>
											<ScoreDistribution value="1.0" recordCount="0.00506103006847276"/>
											<ScoreDistribution value="2.0" recordCount="0.07680857398035129"/>
										</Node>
										<Node score="0.0" recordCount="1">
											<True/>
											<ScoreDistribution value="0.0" recordCount="0.8989084005695301"/>
											<ScoreDistribution value="1.0" recordCount="0.0208827717133365"/>
											<ScoreDistribution value="2.0" recordCount="0.08020882771713336"/>
										</Node>
									</Node>
									<Node score="0.0" recordCount="1">
										<SimplePredicate field="double(float(standardScaler(Alkohol_Berat)))" operator="lessOrEqual" value="1.9360083416104317"/>
										<ScoreDistribution value="0.0" recordCount="0.8631956155143339"/>
										<ScoreDistribution value="1.0" recordCount="0.017284991568296795"/>
										<ScoreDistribution value="2.0" recordCount="0.11951939291736931"/>
									</Node>
									<Node score="0.0" recordCount="1">
										<True/>
										<ScoreDistribution value="0.0" recordCount="0.934984520123839"/>
										<ScoreDistribution value="1.0" recordCount="0.03715170278637771"/>
										<ScoreDistribution value="2.0" recordCount="0.02786377708978328"/>
									</Node>
								</Node>
								<Node>
									<SimplePredicate field="double(float(standardScaler(Perokok)))" operator="lessOrEqual" value="0.11240923404693604"/>
									<Node score="0.0" recordCount="1">
										<SimplePredicate field="double(float(standardScaler(BMI)))" operator="lessOrEqual" value="-0.7396160960197449"/>
										<ScoreDistribution value="0.0" recordCount="0.9579212628375808"/>
										<ScoreDistribution value="1.0" recordCount="0.008510840623811335"/>
										<ScoreDistribution value="2.0" recordCount="0.03356789653860784"/>
									</Node>
									<Node score="0.0" recordCount="1">
										<True/>
										<ScoreDistribution value="0.0" recordCount="0.9377462568951931"/>
										<ScoreDistribution value="1.0" recordCount="0.008274231678486997"/>
										<ScoreDistribution value="2.0" recordCount="0.05397951142631994"/>
									</Node>
								</Node>
								<Node score="0.0" recordCount="0.9999999999999999">
									<SimplePredicate field="double(float(standardScaler(BMI)))" operator="lessOrEqual" value="-1.04230996966362"/>
									<ScoreDistribution value="0.0" recordCount="0.952755905511811"/>
									<ScoreDistribution value="1.0" recordCount="0.007360492981855529"/>
									<ScoreDistribution value="2.0" recordCount="0.039883601506333445"/>
								</Node>
								<Node score="0.0" recordCount="1">
									<True/>
									<ScoreDistribution value="0.0" recordCount="0.9169286387928325"/>
									<ScoreDistribution value="1.0" recordCount="0.011317195850361521"/>
									<ScoreDistribution value="2.0" recordCount="0.07175416535680604"/>
								</Node>
							</Node>
							<Node>
								<SimplePredicate field="double(float(standardScaler(Aktivitas_Fisik)))" operator="lessOrEqual" value="-0.5981562733650208"/>
								<Node>
									<SimplePredicate field="double(float(standardScaler(Alkohol_Berat)))" operator="lessOrEqual" value="1.9360083416104317"/>
									<Node score="0.0" recordCount="1">
										<SimplePredicate field="double(float(standardScaler(Pendapatan)))" operator="lessOrEqual" value="0.8704613745212555"/>
										<ScoreDistribution value="0.0" recordCount="0.8321327904791732"/>
										<ScoreDistribution value="1.0" recordCount="0.020148240943731077"/>
										<ScoreDistribution value="2.0" recordCount="0.14771896857709574"/>
									</Node>
									<Node score="0.0" recordCount="1">
										<True/>
										<ScoreDistribution value="0.0" recordCount="0.8098045299410487"/>
										<ScoreDistribution value="1.0" recordCount="0.013651877133105802"/>
										<ScoreDistribution value="2.0" recordCount="0.17654359292584548"/>
									</Node>
								</Node>
								<Node score="0.0" recordCount="1">
									<SimplePredicate field="double(float(standardScaler(masalah_mental)))" operator="lessOrEqual" value="1.2838292717933655"/>
									<ScoreDistribution value="0.0" recordCount="0.8989441930618401"/>
									<ScoreDistribution value="1.0" recordCount="0.016591251885369532"/>
									<ScoreDistribution value="2.0" recordCount="0.08446455505279035"/>
								</Node>
								<Node score="0.0" recordCount="1">
									<True/>
									<ScoreDistribution value="0.0" recordCount="0.8247422680412371"/>
									<ScoreDistribution value="1.0" recordCount="0.09278350515463918"/>
									<ScoreDistribution value="2.0" recordCount="0.08247422680412371"/>
								</Node>
							</Node>
							<Node>
								<SimplePredicate field="double(float(standardScaler(BMI)))" operator="lessOrEqual" value="-0.28557535260915756"/>
								<Node score="0.0" recordCount="1">
									<SimplePredicate field="double(float(standardScaler(Perokok)))" operator="lessOrEqual" value="0.11240923404693604"/>
									<ScoreDistribution value="0.0" recordCount="0.9243522572310342"/>
									<ScoreDistribution value="1.0" recordCount="0.012847197301370846"/>
									<ScoreDistribution value="2.0" recordCount="0.06280054546759492"/>
								</Node>
								<Node score="0.0" recordCount="1">
									<True/>
									<ScoreDistribution value="0.0" recordCount="0.8895297683057972"/>
									<ScoreDistribution value="1.0" recordCount="0.01437090624694496"/>
									<ScoreDistribution value="2.0" recordCount="0.0960993254472578"/>
								</Node>
							</Node>
							<Node score="0.0" recordCount="1">
								<SimplePredicate field="double(float(standardScaler(Alkohol_Berat)))" operator="lessOrEqual" value="1.9360083416104317"/>
								<ScoreDistribution value="0.0" recordCount="0.8729896225244966"/>
								<ScoreDistribution value="1.0" recordCount="0.017116632901972132"/>
								<ScoreDistribution value="2.0" recordCount="0.10989374457353124"/>
							</Node>
							<Node score="0.0" recordCount="1">
								<True/>
								<ScoreDistribution value="0.0" recordCount="0.9427012278308322"/>
								<ScoreDistribution value="1.0" recordCount="0.01227830832196453"/>
								<ScoreDistribution value="2.0" recordCount="0.045020463847203276"/>
							</Node>
						</Node>
						<Node>
							<SimplePredicate field="double(float(standardScaler(BMI)))" operator="lessOrEqual" value="0.9252000153064728"/>
							<Node>
								<SimplePredicate field="double(float(standardScaler(Aktivitas_Fisik)))" operator="lessOrEqual" value="-0.5981562733650208"/>
								<Node>
									<SimplePredicate field="double(float(standardScaler(BMI)))" operator="lessOrEqual" value="0.47115926444530487"/>
									<Node score="0.0" recordCount="1">
										<SimplePredicate field="double(float(standardScaler(Alkohol_Berat)))" operator="lessOrEqual" value="1.9360083416104317"/>
										<ScoreDistribution value="0.0" recordCount="0.7507470119521913"/>
										<ScoreDistribution value="1.0" recordCount="0.022908366533864542"/>
										<ScoreDistribution value="2.0" recordCount="0.22634462151394422"/>
									</Node>
									<Node score="0.0" recordCount="1">
										<True/>
										<ScoreDistribution value="0.0" recordCount="0.8619854721549637"/>
										<ScoreDistribution value="1.0" recordCount="0.01937046004842615"/>
										<ScoreDistribution value="2.0" recordCount="0.11864406779661017"/>
									</Node>
								</Node>
								<Node score="0.0" recordCount="1">
									<SimplePredicate field="double(float(standardScaler(Perokok)))" operator="lessOrEqual" value="0.11240923404693604"/>
									<ScoreDistribution value="0.0" recordCount="0.7180296810862015"/>
									<ScoreDistribution value="1.0" recordCount="0.02715503631196716"/>
									<ScoreDistribution value="2.0" recordCount="0.2548152826018314"/>
								</Node>
								<Node score="0.0" recordCount="1">
									<True/>
									<ScoreDistribution value="0.0" recordCount="0.6559703795124961"/>
									<ScoreDistribution value="1.0" recordCount="0.03332304844183894"/>
									<ScoreDistribution value="2.0" recordCount="0.31070657204566493"/>
								</Node>
							</Node>
							<Node>
								<SimplePredicate field="double(float(standardScaler(Perokok)))" operator="lessOrEqual" value="0.11240923404693604"/>
								<Node score="0.0" recordCount="1">
									<SimplePredicate field="double(float(standardScaler(Alkohol_Berat)))" operator="lessOrEqual" value="1.9360083416104317"/>
									<ScoreDistribution value="0.0" recordCount="0.8389200110202957"/>
									<ScoreDistribution value="1.0" recordCount="0.01804573422720176"/>
									<ScoreDistribution value="2.0" recordCount="0.14303425475250253"/>
								</Node>
								<Node score="0.0" recordCount="1">
									<True/>
									<ScoreDistribution value="0.0" recordCount="0.9445234708392604"/>
									<ScoreDistribution value="1.0" recordCount="0.005689900426742532"/>
									<ScoreDistribution value="2.0" recordCount="0.049786628733997154"/>
								</Node>
							</Node>
							<Node score="0.0" recordCount="1">
								<SimplePredicate field="double(float(standardScaler(BMI)))" operator="lessOrEqual" value="0.47115926444530487"/>
								<ScoreDistribution value="0.0" recordCount="0.8101170252925632"/>
								<ScoreDistribution value="1.0" recordCount="0.0251038127595319"/>
								<ScoreDistribution value="2.0" recordCount="0.16477916194790487"/>
							</Node>
							<Node score="0.0" recordCount="1">
								<True/>
								<ScoreDistribution value="0.0" recordCount="0.7442929370307951"/>
								<ScoreDistribution value="1.0" recordCount="0.026198866247893367"/>
								<ScoreDistribution value="2.0" recordCount="0.22950819672131148"/>
							</Node>
						</Node>
						<Node>
							<SimplePredicate field="double(float(standardScaler(Aktivitas_Fisik)))" operator="lessOrEqual" value="-0.5981562733650208"/>
							<Node>
								<SimplePredicate field="double(float(standardScaler(Alkohol_Berat)))" operator="lessOrEqual" value="1.9360083416104317"/>
								<Node score="0.0" recordCount="1">
									<SimplePredicate field="double(float(standardScaler(BMI)))" operator="lessOrEqual" value="2.7413631677627563"/>
									<ScoreDistribution value="0.0" recordCount="0.6161813787547474"/>
									<ScoreDistribution value="1.0" recordCount="0.03648290942571067"/>
									<ScoreDistribution value="2.0" recordCount="0.3473357118195419"/>
								</Node>
								<Node score="0.0" recordCount="1">
									<True/>
									<ScoreDistribution value="0.0" recordCount="0.5353241077931536"/>
									<ScoreDistribution value="1.0" recordCount="0.02403495994173343"/>
									<ScoreDistribution value="2.0" recordCount="0.4406409322651129"/>
								</Node>
							</Node>
							<Node score="0.0" recordCount="1">
								<SimplePredicate field="double(float(standardScaler(hari_minum_manis)))" operator="lessOrEqual" value="1.3083166480064392"/>
								<ScoreDistribution value="0.0" recordCount="0.7972972972972973"/>
								<ScoreDistribution value="1.0" recordCount="0.02702702702702703"/>
								<ScoreDistribution value="2.0" recordCount="0.17567567567567569"/>
							</Node>
							<Node score="0.0" recordCount="1">
								<True/>
								<ScoreDistribution value="0.0" recordCount="0.8235294117647058"/>
								<ScoreDistribution value="1.0" recordCount="0.14705882352941177"/>
								<ScoreDistribution value="2.0" recordCount="0.029411764705882353"/>
							</Node>
						</Node>
						<Node>
							<SimplePredicate field="double(float(standardScaler(BMI)))" operator="lessOrEqual" value="6.3736891746521"/>
							<Node score="0.0" recordCount="1">
								<SimplePredicate field="double(float(standardScaler(BMI)))" operator="lessOrEqual" value="1.9846284985542297"/>
								<ScoreDistribution value="0.0" recordCount="0.7196246691795654"/>
								<ScoreDistribution value="1.0" recordCount="0.030956772796535408"/>
								<ScoreDistribution value="2.0" recordCount="0.24941855802389928"/>
							</Node>
							<Node score="0.0" recordCount="1">
								<True/>
								<ScoreDistribution value="0.0" recordCount="0.6649855907780979"/>
								<ScoreDistribution value="1.0" recordCount="0.026416906820365033"/>
								<ScoreDistribution value="2.0" recordCount="0.308597502401537"/>
							</Node>
						</Node>
						<Node score="0.0" recordCount="1">
							<SimplePredicate field="double(float(standardScaler(Sayur_harian)))" operator="lessOrEqual" value="-0.004824221134185791"/>
							<ScoreDistribution value="0.0" recordCount="0.8313253012048193"/>
							<ScoreDistribution value="1.0" recordCount="0.06626506024096386"/>
							<ScoreDistribution value="2.0" recordCount="0.10240963855421686"/>
						</Node>
						<Node score="0.0" recordCount="1">
							<True/>
							<ScoreDistribution value="0.0" recordCount="0.9151515151515152"/>
							<ScoreDistribution value="1.0" recordCount="0"/>
							<ScoreDistribution value="2.0" recordCount="0.08484848484848485"/>
						</Node>
					</Node>
				</TreeModel>
			</Segment>
			<Segment id="5">
				<True/>
				<TreeModel functionName="classification" missingValueStrategy="nullPrediction">
					<MiningSchema>
						<MiningField name="double(float(standardScaler(BMI)))"/>
						<MiningField name="double(float(standardScaler(Aktivitas_Fisik)))"/>
						<MiningField name="double(float(standardScaler(hari_makan_manis)))"/>
						<MiningField name="double(float(standardScaler(masalah_mental)))"/>
						<MiningField name="double(float(standardScaler(Perokok)))"/>
						<MiningField name="double(float(standardScaler(Alkohol_Berat)))"/>
						<MiningField name="double(float(standardScaler(Pendapatan)))"/>
					</MiningSchema>
					<Node>
						<True/>
						<Node>
							<SimplePredicate field="double(float(standardScaler(BMI)))" operator="lessOrEqual" value="0.01711849309504032"/>
							<Node>
								<SimplePredicate field="double(float(standardScaler(BMI)))" operator="lessOrEqual" value="-0.43692226707935333"/>
								<Node>
									<SimplePredicate field="double(float(standardScaler(Aktivitas_Fisik)))" operator="lessOrEqual" value="-0.5981562733650208"/>
									<Node>
										<SimplePredicate field="double(float(standardScaler(BMI)))" operator="lessOrEqual" value="-0.7396160960197449"/>
										<Node score="0.0" recordCount="1">
											<SimplePredicate field="double(float(standardScaler(hari_makan_manis)))" operator="lessOrEqual" value="0.002308771014213562"/>
											<ScoreDistribution value="0.0" recordCount="0.8993253762324858"/>
											<ScoreDistribution value="1.0" recordCount="0.007265179034769071"/>
											<ScoreDistribution value="2.0" recordCount="0.0934094447327452"/>
										</Node>
										<Node score="0.0" recordCount="1">
											<True/>
											<ScoreDistribution value="0.0" recordCount="0.8995576372625553"/>
											<ScoreDistribution value="1.0" recordCount="0.0195160031225605"/>
											<ScoreDistribution value="2.0" recordCount="0.0809263596148842"/>
										</Node>
									</Node>
									<Node score="0.0" recordCount="1">
										<SimplePredicate field="double(float(standardScaler(Alkohol_Berat)))" operator="lessOrEqual" value="1.9360083416104317"/>
										<ScoreDistribution value="0.0" recordCount="0.8534269982912474"/>
										<ScoreDistribution value="1.0" recordCount="0.017846971710651225"/>
										<ScoreDistribution value="2.0" recordCount="0.1287260299981014"/>
									</Node>
									<Node score="0.0" recordCount="1">
										<True/>
										<ScoreDistribution value="0.0" recordCount="0.9484848484848485"/>
										<ScoreDistribution value="1.0" recordCount="0.015151515151515152"/>
										<ScoreDistribution value="2.0" recordCount="0.03636363636363636"/>
									</Node>
								</Node>
								<Node>
									<SimplePredicate field="double(float(standardScaler(Perokok)))" operator="lessOrEqual" value="0.11240923404693604"/>
									<Node score="0.0" recordCount="1">
										<SimplePredicate field="double(float(standardScaler(BMI)))" operator="lessOrEqual" value="-0.7396160960197449"/>
										<ScoreDistribution value="0.0" recordCount="0.9592773157441927"/>
										<ScoreDistribution value="1.0" recordCount="0.007982028486760348"/>
										<ScoreDistribution value="2.0" recordCount="0.03274065576904694"/>
									</Node>
									<Node score="0.0" recordCount="1">
										<True/>
										<ScoreDistribution value="0.0" recordCount="0.9372251383174919"/>
										<ScoreDistribution value="1.0" recordCount="0.00872464179316215"/>
										<ScoreDistribution value="2.0" recordCount="0.054050219889346"/>
									</Node>
								</Node>
								<Node score="0.0" recordCount="1">
									<SimplePredicate field="double(float(standardScaler(Alkohol_Berat)))" operator="lessOrEqual" value="1.9360083416104317"/>
									<ScoreDistribution value="0.0" recordCount="0.914730933023616"/>
									<ScoreDistribution value="1.0" recordCount="0.011614401858304297"/>
									<ScoreDistribution value="2.0" recordCount="0.07365466511807975"/>
								</Node>
								<Node score="0.0" recordCount="1">
									<True/>
									<ScoreDistribution value="0.0" recordCount="0.9692183070068854"/>
									<ScoreDistribution value="1.0" recordCount="0.008100445524503848"/>
									<ScoreDistribution value="2.0" recordCount="0.022681247468610773"/>
								</Node>
							</Node>
							<Node>
								<SimplePredicate field="double(float(standardScaler(Aktivitas_Fisik)))" operator="lessOrEqual" value="-0.5981562733650208"/>
								<Node>
									<SimplePredicate field="double(float(standardScaler(Alkohol_Berat)))" operator="lessOrEqual" value="1.9360083416104317"/>
									<Node score="0.0" recordCount="1">
										<SimplePredicate field="double(float(standardScaler(hari_makan_manis)))" operator="lessOrEqual" value="0.4383544251322746"/>
										<ScoreDistribution value="0.0" recordCount="0.7997479123995589"/>
										<ScoreDistribution value="1.0" recordCount="0.021900110288325194"/>
										<ScoreDistribution value="2.0" recordCount="0.17835197731211597"/>
									</Node>
									<Node score="0.0" recordCount="1">
										<True/>
										<ScoreDistribution value="0.0" recordCount="0.8321899736147758"/>
										<ScoreDistribution value="1.0" recordCount="0.01345646437994723"/>
										<ScoreDistribution value="2.0" recordCount="0.15435356200527706"/>
									</Node>
								</Node>
								<Node score="0.0" recordCount="1">
									<SimplePredicate field="double(float(standardScaler(Pendapatan)))" operator="lessOrEqual" value="0.8704613745212555"/>
									<ScoreDistribution value="0.0" recordCount="0.8581235697940504"/>
									<ScoreDistribution value="1.0" recordCount="0.020594965675057208"/>
									<ScoreDistribution value="2.0" recordCount="0.12128146453089245"/>
								</Node>
								<Node score="0.0" recordCount="1">
									<True/>
									<ScoreDistribution value="0.0" recordCount="0.9634146341463414"/>
									<ScoreDistribution value="1.0" recordCount="0.006097560975609756"/>
									<ScoreDistribution value="2.0" recordCount="0.03048780487804878"/>
								</Node>
							</Node>
							<Node>
								<SimplePredicate field="double(float(standardScaler(Alkohol_Berat)))" operator="lessOrEqual" value="1.9360083416104317"/>
								<Node score="0.0" recordCount="1">
									<SimplePredicate field="double(float(standardScaler(Perokok)))" operator="lessOrEqual" value="0.11240923404693604"/>
									<ScoreDistribution value="0.0" recordCount="0.8958754644217655"/>
									<ScoreDistribution value="1.0" recordCount="0.013920895452193952"/>
									<ScoreDistribution value="2.0" recordCount="0.09020364012604054"/>
								</Node>
								<Node score="0.0" recordCount="1">
									<True/>
									<ScoreDistribution value="0.0" recordCount="0.8565641808885052"/>
									<ScoreDistribution value="1.0" recordCount="0.020917723620426324"/>
									<ScoreDistribution value="2.0" recordCount="0.12251809549106846"/>
								</Node>
							</Node>
							<Node score="0.0" recordCount="1">
								<SimplePredicate field="double(float(standardScaler(masalah_mental)))" operator="lessOrEqual" value="0.05580392701540404"/>
								<ScoreDistribution value="0.0" recordCount="0.943474646716542"/>
								<ScoreDistribution value="1.0" recordCount="0.0199501246882793"/>
								<ScoreDistribution value="2.0" recordCount="0.03657522859517872"/>
							</Node>
							<Node score="0.0" recordCount="1">
								<True/>
								<ScoreDistribution value="0.0" recordCount="0.9475218658892128"/>
								<ScoreDistribution value="1.0" recordCount="0.004859086491739553"/>
								<ScoreDistribution value="2.0" recordCount="0.047619047619047616"/>
							</Node>
						</Node>
						<Node>
							<SimplePredicate field="double(float(standardScaler(BMI)))" operator="lessOrEqual" value="0.9252000153064728"/>
							<Node>
								<SimplePredicate field="double(float(standardScaler(Aktivitas_Fisik)))" operator="lessOrEqual" value="-0.5981562733650208"/>
								<Node>
									<SimplePredicate field="double(float(standardScaler(BMI)))" operator="lessOrEqual" value="0.47115926444530487"/>
									<Node score="0.0" recordCount="1">
										<SimplePredicate field="double(float(standardScaler(Alkohol_Berat)))" operator="lessOrEqual" value="1.9360083416104317"/>
										<ScoreDistribution value="0.0" recordCount="0.7568897637795275"/>
										<ScoreDistribution value="1.0" recordCount="0.023622047244094488"/>
										<ScoreDistribution value="2.0" recordCount="0.21948818897637795"/>
									</Node>
									<Node score="0.0" recordCount="1">
										<True/>
										<ScoreDistribution value="0.0" recordCount="0.8492462311557789"/>
										<ScoreDistribution value="1.0" recordCount="0.04020100502512563"/>
										<ScoreDistribution value="2.0" recordCount="0.11055276381909548"/>
									</Node>
								</Node>
								<Node score="0.0" recordCount="1">
									<SimplePredicate field="double(float(standardScaler(Perokok)))" operator="lessOrEqual" value="0.11240923404693604"/>
									<ScoreDistribution value="0.0" recordCount="0.7281858129315757"/>
									<ScoreDistribution value="1.0" recordCount="0.028562460765850596"/>
									<ScoreDistribution value="2.0" recordCount="0.24325172630257377"/>
								</Node>
								<Node score="0.0" recordCount="1">
									<True/>
									<ScoreDistribution value="0.0" recordCount="0.6565368787591009"/>
									<ScoreDistribution value="1.0" recordCount="0.03007280785058563"/>
									<ScoreDistribution value="2.0" recordCount="0.31339031339031337"/>
								</Node>
							</Node>
							<Node>
								<SimplePredicate field="double(float(standardScaler(BMI)))" operator="lessOrEqual" value="0.47115926444530487"/>
								<Node score="0.0" recordCount="0.9999999999999999">
									<SimplePredicate field="double(float(standardScaler(Alkohol_Berat)))" operator="lessOrEqual" value="1.9360083416104317"/>
									<ScoreDistribution value="0.0" recordCount="0.8318448583822403"/>
									<ScoreDistribution value="1.0" recordCount="0.021646678574466276"/>
									<ScoreDistribution value="2.0" recordCount="0.14650846304329335"/>
								</Node>
								<Node score="0.0" recordCount="1">
									<True/>
									<ScoreDistribution value="0.0" recordCount="0.9195402298850575"/>
									<ScoreDistribution value="1.0" recordCount="0.020689655172413793"/>
									<ScoreDistribution value="2.0" recordCount="0.059770114942528735"/>
								</Node>
							</Node>
							<Node score="0.0" recordCount="1">
								<SimplePredicate field="double(float(standardScaler(Perokok)))" operator="lessOrEqual" value="0.11240923404693604"/>
								<ScoreDistribution value="0.0" recordCount="0.8124927435272263"/>
								<ScoreDistribution value="1.0" recordCount="0.021014745152676186"/>
								<ScoreDistribution value="2.0" recordCount="0.1664925113200975"/>
							</Node>
							<Node score="0.0" recordCount="1">
								<True/>
								<ScoreDistribution value="0.0" recordCount="0.744268897149938"/>
								<ScoreDistribution value="1.0" recordCount="0.02648698884758364"/>
								<ScoreDistribution value="2.0" recordCount="0.22924411400247832"/>
							</Node>
						</Node>
						<Node>
							<SimplePredicate field="double(float(standardScaler(Aktivitas_Fisik)))" operator="lessOrEqual" value="-0.5981562733650208"/>
							<Node>
								<SimplePredicate field="double(float(standardScaler(Alkohol_Berat)))" operator="lessOrEqual" value="1.9360083416104317"/>
								<Node score="0.0" recordCount="1">
									<SimplePredicate field="double(float(standardScaler(BMI)))" operator="lessOrEqual" value="2.135975480079651"/>
									<ScoreDistribution value="0.0" recordCount="0.6266558529332252"/>
									<ScoreDistribution value="1.0" recordCount="0.035685320356853206"/>
									<ScoreDistribution value="2.0" recordCount="0.3376588267099216"/>
								</Node>
								<Node score="0.0" recordCount="1">
									<True/>
									<ScoreDistribution value="0.0" recordCount="0.5488695652173913"/>
									<ScoreDistribution value="1.0" recordCount="0.028521739130434782"/>
									<ScoreDistribution value="2.0" recordCount="0.4226086956521739"/>
								</Node>
							</Node>
							<Node score="0.0" recordCount="1">
								<SimplePredicate field="double(float(standardScaler(BMI)))" operator="lessOrEqual" value="2.2873224020004272"/>
								<ScoreDistribution value="0.0" recordCount="0.8833333333333333"/>
								<ScoreDistribution value="1.0" recordCount="0.020833333333333332"/>
								<ScoreDistribution value="2.0" recordCount="0.09583333333333334"/>
							</Node>
							<Node score="0.0" recordCount="1">
								<True/>
								<ScoreDistribution value="0.0" recordCount="0.7166666666666667"/>
								<ScoreDistribution value="1.0" recordCount="0.016666666666666666"/>
								<ScoreDistribution value="2.0" recordCount="0.26666666666666666"/>
							</Node>
						</Node>
						<Node>
							<SimplePredicate field="double(float(standardScaler(BMI)))" operator="lessOrEqual" value="6.3736891746521"/>
							<Node score="0.0" recordCount="1">
								<SimplePredicate field="double(float(standardScaler(BMI)))" operator="lessOrEqual" value="1.3792407512664795"/>
								<ScoreDistribution value="0.0" recordCount="0.7316234796404019"/>
								<ScoreDistribution value="1.0" recordCount="0.030142781597038603"/>
								<ScoreDistribution value="2.0" recordCount="0.2382337387625595"/>
							</Node>
							<Node score="0.0" recordCount="1">
								<True/>
								<ScoreDistribution value="0.0" recordCount="0.6724924858065234"/>
								<ScoreDistribution value="1.0" recordCount="0.02938884559723923"/>
								<ScoreDistribution value="2.0" recordCount="0.2981186685962373"/>
							</Node>
						</Node>
						<Node score="0.0" recordCount="1">
							<SimplePredicate field="double(float(standardScaler(hari_makan_manis)))" operator="lessOrEqual" value="0.002308771014213562"/>
							<ScoreDistribution value="0.0" recordCount="0.9387755102040817"/>
							<ScoreDistribution value="1.0" recordCount="0"/>
							<ScoreDistribution value="2.0" recordCount="0.061224489795918366"/>
						</Node>
						<Node score="0.0" recordCount="1">
							<True/>
							<ScoreDistribution value="0.0" recordCount="0.8470588235294118"/>
							<ScoreDistribution value="1.0" recordCount="0.058823529411764705"/>
							<ScoreDistribution value="2.0" recordCount="0.09411764705882353"/>
						</Node>
					</Node>
				</TreeModel>
			</Segment>
			<Segment id="6">
				<True/>
				<TreeModel functionName="classification" missingValueStrategy="nullPrediction">
					<MiningSchema>
						<MiningField name="double(float(standardScaler(BMI)))"/>
						<MiningField name="double(float(standardScaler(Aktivitas_Fisik)))"/>
						<MiningField name="double(float(standardScaler(masalah_mental)))"/>
						<MiningField name="double(float(standardScaler(Perokok)))"/>
						<MiningField name="double(float(standardScaler(Usia)))"/>
						<MiningField name="double(float(standardScaler(Alkohol_Berat)))"/>
						<MiningField name="double(float(standardScaler(hari_minum_manis)))"/>
					</MiningSchema>
					<Node>
						<True/>
						<Node>
							<SimplePredicate field="double(float(standardScaler(BMI)))" operator="lessOrEqual" value="0.01711849309504032"/>
							<Node>
								<SimplePredicate field="double(float(standardScaler(BMI)))" operator="lessOrEqual" value="-0.5882691740989685"/>
								<Node>
									<SimplePredicate field="double(float(standardScaler(Aktivitas_Fisik)))" operator="lessOrEqual" value="-0.5981562733650208"/>
									<Node>
										<SimplePredicate field="double(float(standardScaler(Alkohol_Berat)))" operator="lessOrEqual" value="1.9360083416104317"/>
										<Node score="0.0" recordCount="1">
											<SimplePredicate field="double(float(standardScaler(BMI)))" operator="lessOrEqual" value="-1.1936569213867188"/>
											<ScoreDistribution value="0.0" recordCount="0.9163533834586466"/>
											<ScoreDistribution value="1.0" recordCount="0.008928571428571428"/>
											<ScoreDistribution value="2.0" recordCount="0.07471804511278196"/>
										</Node>
										<Node score="0.0" recordCount="0.9999999999999999">
											<True/>
											<ScoreDistribution value="0.0" recordCount="0.8777173913043478"/>
											<ScoreDistribution value="1.0" recordCount="0.013716356107660456"/>
											<ScoreDistribution value="2.0" recordCount="0.10856625258799171"/>
										</Node>
									</Node>
									<Node score="0.0" recordCount="1">
										<SimplePredicate field="double(float(standardScaler(masalah_mental)))" operator="lessOrEqual" value="0.05580392701540404"/>
										<ScoreDistribution value="0.0" recordCount="0.9057071960297767"/>
										<ScoreDistribution value="1.0" recordCount="0.034739454094292806"/>
										<ScoreDistribution value="2.0" recordCount="0.05955334987593052"/>
									</Node>
									<Node score="0.0" recordCount="1">
										<True/>
										<ScoreDistribution value="0.0" recordCount="0.9848484848484849"/>
										<ScoreDistribution value="1.0" recordCount="0"/>
										<ScoreDistribution value="2.0" recordCount="0.015151515151515152"/>
									</Node>
								</Node>
								<Node>
									<SimplePredicate field="double(float(standardScaler(Perokok)))" operator="lessOrEqual" value="0.11240923404693604"/>
									<Node score="0.0" recordCount="1">
										<SimplePredicate field="double(float(standardScaler(BMI)))" operator="lessOrEqual" value="-1.04230996966362"/>
										<ScoreDistribution value="0.0" recordCount="0.9689345876175891"/>
										<ScoreDistribution value="1.0" recordCount="0.006125574272588055"/>
										<ScoreDistribution value="2.0" recordCount="0.024939838109822796"/>
									</Node>
									<Node score="0.0" recordCount="1">
										<True/>
										<ScoreDistribution value="0.0" recordCount="0.9495533639696391"/>
										<ScoreDistribution value="1.0" recordCount="0.009035989053544689"/>
										<ScoreDistribution value="2.0" recordCount="0.041410646976816234"/>
									</Node>
								</Node>
								<Node score="0.0" recordCount="1">
									<SimplePredicate field="double(float(standardScaler(BMI)))" operator="lessOrEqual" value="-0.8909630179405212"/>
									<ScoreDistribution value="0.0" recordCount="0.9439827307069617"/>
									<ScoreDistribution value="1.0" recordCount="0.009498111171073935"/>
									<ScoreDistribution value="2.0" recordCount="0.04651915812196438"/>
								</Node>
								<Node score="0.0" recordCount="1">
									<True/>
									<ScoreDistribution value="0.0" recordCount="0.9089434411160376"/>
									<ScoreDistribution value="1.0" recordCount="0.013193468151833027"/>
									<ScoreDistribution value="2.0" recordCount="0.07786309073212934"/>
								</Node>
							</Node>
							<Node>
								<SimplePredicate field="double(float(standardScaler(Aktivitas_Fisik)))" operator="lessOrEqual" value="-0.5981562733650208"/>
								<Node>
									<SimplePredicate field="double(float(standardScaler(Alkohol_Berat)))" operator="lessOrEqual" value="1.9360083416104317"/>
									<Node score="0.0" recordCount="1">
										<SimplePredicate field="double(float(standardScaler(BMI)))" operator="lessOrEqual" value="-0.13422842510044575"/>
										<ScoreDistribution value="0.0" recordCount="0.8300667222685572"/>
										<ScoreDistribution value="1.0" recordCount="0.02158048373644704"/>
										<ScoreDistribution value="2.0" recordCount="0.14835279399499582"/>
									</Node>
									<Node score="0.0" recordCount="1">
										<True/>
										<ScoreDistribution value="0.0" recordCount="0.7897845726198749"/>
										<ScoreDistribution value="1.0" recordCount="0.027449617790132035"/>
										<ScoreDistribution value="2.0" recordCount="0.18276580958999306"/>
									</Node>
								</Node>
								<Node score="0.0" recordCount="1">
									<SimplePredicate field="double(float(standardScaler(Usia)))" operator="lessOrEqual" value="1.472448706626892"/>
									<ScoreDistribution value="0.0" recordCount="0.8869448183041723"/>
									<ScoreDistribution value="1.0" recordCount="0.020188425302826378"/>
									<ScoreDistribution value="2.0" recordCount="0.09286675639300135"/>
								</Node>
								<Node score="0.0" recordCount="1">
									<True/>
									<ScoreDistribution value="0.0" recordCount="1"/>
									<ScoreDistribution value="1.0" recordCount="0"/>
									<ScoreDistribution value="2.0" recordCount="0"/>
								</Node>
							</Node>
							<Node>
								<SimplePredicate field="double(float(standardScaler(Perokok)))" operator="lessOrEqual" value="0.11240923404693604"/>
								<Node score="0.0" recordCount="1">
									<SimplePredicate field="double(float(standardScaler(BMI)))" operator="lessOrEqual" value="-0.28557535260915756"/>
									<ScoreDistribution value="0.0" recordCount="0.9237837452810029"/>
									<ScoreDistribution value="1.0" recordCount="0.012821426027494837"/>
									<ScoreDistribution value="2.0" recordCount="0.06339482869150224"/>
								</Node>
								<Node score="0.0" recordCount="1">
									<True/>
									<ScoreDistribution value="0.0" recordCount="0.8932907791577048"/>
									<ScoreDistribution value="1.0" recordCount="0.014431416082703116"/>
									<ScoreDistribution value="2.0" recordCount="0.09227780475959203"/>
								</Node>
							</Node>
							<Node score="0.0" recordCount="1">
								<SimplePredicate field="double(float(standardScaler(Alkohol_Berat)))" operator="lessOrEqual" value="1.9360083416104317"/>
								<ScoreDistribution value="0.0" recordCount="0.8662948290241869"/>
								<ScoreDistribution value="1.0" recordCount="0.017462468723936614"/>
								<ScoreDistribution value="2.0" recordCount="0.11624270225187656"/>
							</Node>
							<Node score="0.0" recordCount="1">
								<True/>
								<ScoreDistribution value="0.0" recordCount="0.9432265317594154"/>
								<ScoreDistribution value="1.0" recordCount="0.016301292861157952"/>
								<ScoreDistribution value="2.0" recordCount="0.04047217537942664"/>
							</Node>
						</Node>
						<Node>
							<SimplePredicate field="double(float(standardScaler(BMI)))" operator="lessOrEqual" value="0.6225062012672424"/>
							<Node>
								<SimplePredicate field="double(float(standardScaler(Aktivitas_Fisik)))" operator="lessOrEqual" value="-0.5981562733650208"/>
								<Node>
									<SimplePredicate field="double(float(standardScaler(Perokok)))" operator="lessOrEqual" value="0.11240923404693604"/>
									<Node score="0.0" recordCount="1">
										<SimplePredicate field="double(float(standardScaler(hari_minum_manis)))" operator="lessOrEqual" value="-0.8715934455394745"/>
										<ScoreDistribution value="0.0" recordCount="0.8227344992050875"/>
										<ScoreDistribution value="1.0" recordCount="0.018282988871224166"/>
										<ScoreDistribution value="2.0" recordCount="0.1589825119236884"/>
									</Node>
									<Node score="0.0" recordCount="1">
										<True/>
										<ScoreDistribution value="0.0" recordCount="0.7771657486229344"/>
										<ScoreDistribution value="1.0" recordCount="0.02704056084126189"/>
										<ScoreDistribution value="2.0" recordCount="0.1957936905358037"/>
									</Node>
								</Node>
								<Node score="0.0" recordCount="0.9999999999999999">
									<SimplePredicate field="double(float(standardScaler(BMI)))" operator="lessOrEqual" value="0.47115926444530487"/>
									<ScoreDistribution value="0.0" recordCount="0.7507119386637459"/>
									<ScoreDistribution value="1.0" recordCount="0.0276013143483023"/>
									<ScoreDistribution value="2.0" recordCount="0.2216867469879518"/>
								</Node>
								<Node score="0.0" recordCount="1">
									<True/>
									<ScoreDistribution value="0.0" recordCount="0.6522094926350246"/>
									<ScoreDistribution value="1.0" recordCount="0.03518821603927987"/>
									<ScoreDistribution value="2.0" recordCount="0.31260229132569556"/>
								</Node>
							</Node>
							<Node>
								<SimplePredicate field="double(float(standardScaler(Alkohol_Berat)))" operator="lessOrEqual" value="1.9360083416104317"/>
								<Node score="0.0" recordCount="1">
									<SimplePredicate field="double(float(standardScaler(Perokok)))" operator="lessOrEqual" value="0.11240923404693604"/>
									<ScoreDistribution value="0.0" recordCount="0.8492003046458492"/>
									<ScoreDistribution value="1.0" recordCount="0.018864608354326556"/>
									<ScoreDistribution value="2.0" recordCount="0.13193508699982423"/>
								</Node>
								<Node score="0.0" recordCount="0.9999999999999999">
									<True/>
									<ScoreDistribution value="0.0" recordCount="0.7944444444444444"/>
									<ScoreDistribution value="1.0" recordCount="0.02326892109500805"/>
									<ScoreDistribution value="2.0" recordCount="0.1822866344605475"/>
								</Node>
							</Node>
							<Node score="0.0" recordCount="1">
								<SimplePredicate field="double(float(standardScaler(masalah_mental)))" operator="lessOrEqual" value="-1.618776023387909"/>
								<ScoreDistribution value="0.0" recordCount="0.8269230769230769"/>
								<ScoreDistribution value="1.0" recordCount="0"/>
								<ScoreDistribution value="2.0" recordCount="0.17307692307692307"/>
							</Node>
							<Node score="0.0" recordCount="1">
								<True/>
								<ScoreDistribution value="0.0" recordCount="0.9354180829367778"/>
								<ScoreDistribution value="1.0" recordCount="0.016315431679129844"/>
								<ScoreDistribution value="2.0" recordCount="0.04826648538409246"/>
							</Node>
						</Node>
						<Node>
							<SimplePredicate field="double(float(standardScaler(Aktivitas_Fisik)))" operator="lessOrEqual" value="-0.5981562733650208"/>
							<Node>
								<SimplePredicate field="double(float(standardScaler(BMI)))" operator="lessOrEqual" value="2.135975480079651"/>
								<Node score="0.0" recordCount="1">
									<SimplePredicate field="double(float(standardScaler(Perokok)))" operator="lessOrEqual" value="0.11240923404693604"/>
									<ScoreDistribution value="0.0" recordCount="0.6844334627603248"/>
									<ScoreDistribution value="1.0" recordCount="0.03459230497705612"/>
									<ScoreDistribution value="2.0" recordCount="0.28097423226261914"/>
								</Node>
								<Node score="0.0" recordCount="1">
									<True/>
									<ScoreDistribution value="0.0" recordCount="0.6115157821713493"/>
									<ScoreDistribution value="1.0" recordCount="0.032084634061741245"/>
									<ScoreDistribution value="2.0" recordCount="0.35639958376690944"/>
								</Node>
							</Node>
							<Node score="0.0" recordCount="1">
								<SimplePredicate field="double(float(standardScaler(BMI)))" operator="lessOrEqual" value="6.676383018493652"/>
								<ScoreDistribution value="0.0" recordCount="0.527112676056338"/>
								<ScoreDistribution value="1.0" recordCount="0.03415492957746479"/>
								<ScoreDistribution value="2.0" recordCount="0.4387323943661972"/>
							</Node>
							<Node score="0.0" recordCount="1">
								<True/>
								<ScoreDistribution value="0.0" recordCount="0.7737226277372263"/>
